tree
version=v4
num_class=1
num_tree_per_iteration=1
label_index=0
max_feature_idx=41
objective=binary sigmoid:1
feature_names=home_gf_r5 home_ga_r5 home_gd_r5 away_gf_r5 away_ga_r5 away_gd_r5 home_days_since_last away_days_since_last home_hs_r5 away_hs_r5 home_as_r5 away_as_r5 home_hst_r5 away_hst_r5 home_hs_ratio_r5 away_hs_ratio_r5 home_ast_r5 away_ast_r5 home_as_ratio_r5 away_as_ratio_r5 home_hc_r5 away_hc_r5 home_ac_r5 away_ac_r5 home_hf_r5 away_hf_r5 home_af_r5 away_af_r5 home_hy_r5 away_hy_r5 home_ay_r5 away_ay_r5 home_hr_r5 away_hr_r5 home_ar_r5 away_ar_r5 league_ht_draw_rate_historical league_encoded country_encoded dc_draw_prob elo_draw_prob referee_adj
feature_infos=[0:4] [0:3] [-3:4] [0:3.2000000476837158] [0:4] [-4:3] [2:6292] [1:5943] [0:29] [2:29] [0:29] [2:29] [0:15.5] [0:19] [0:1] [0:1] [0:15.5] [0:19] [0:1] [0:1] [0:16] [0:15] [0:16] [0:15] [0:41.200000762939453] [0:41.599998474121094] [0:41.200000762939453] [0:41.599998474121094] [0:8] [0:7] [0:8] [0:7] [0:2] [0:2] [0:2] [0:2] [0.24509803950786591:0.56603771448135376] [0:22] [0:11] [0.044826745986938477:0.87694168090820312] [0.10225442796945572:0.44081038236618042] none
tree_sizes=3442 3527 3508 3505 3526 3508 3489 3510 3499 3509 3509 3538 3512 3536 3507 3539 3543 3541 3527 3519 3526 3518 3532 3501 3526 3532 3521 3511 3527 3500 3509 3489 3511 3530 3515 3520 3520 3495 3503 3520 3473 3479 3499

Tree=0
num_leaves=31
num_cat=0
split_feature=40 36 40 2 38 38 4 12 36 8 24 27 40 36 40 24 5 32 0 15 15 27 12 29 36 2 8 1 2 9
split_gain=184.934 133.238 35.736 35.3644 28.3145 16.7765 16.7138 22.9791 12.6221 11.8683 14.2586 10.8469 10.4705 10.3715 10.2733 9.87493 9.7126 9.00004 8.99123 11.1457 12.1618 7.90316 7.71906 7.46213 7.17933 6.68747 6.65208 9.88386 9.49151 6.48424
threshold=0.36913608014583593 0.44737932085990911 0.43257108330726629 0.55000001192092907 2.5000000000000004 9.5000000000000018 0.63333335518836986 6.9000000953674325 0.39948512613773351 11.291666507720949 18.633333206176761 16.899999618530277 0.33851596713066107 0.45954893529415136 0.39875504374504095 11.775000095367433 0.90000000596046459 0.36666667461395269 0.70833334326744091 0.51042118668556224 0.48342490196228033 17.550000190734867 4.9000000953674325 3.2250000238418584 0.472181186079979 1.0000000180025095e-35 11.900000095367433 0.36666667461395269 0.77500000596046459 12.366666316986086
decision_type=2 2 2 2 2 2 2 2 2 2 2 2 2 2 2 2 2 2 2 2 2 2 2 2 2 2 2 2 2 2
left_child=3 2 6 4 -1 8 7 14 29 18 -11 22 -5 17 -2 -10 -9 23 19 20 -3 -13 -8 -6 -12 -15 28 -28 -7 -4
right_child=1 9 5 12 13 26 11 16 15 10 24 21 -14 25 -16 -17 -18 -19 -20 -21 -22 -23 -24 -25 -26 -27 27 -29 -30 -31
leaf_value=-0.29246930124715897 -0.29786862316668317 -0.28453134765887678 -0.2960775230021383 -0.31804628556399483 -0.30840921784457087 -0.28480842398940071 -0.2983471262239194 -0.30877121241151817 -0.29444423488482618 -0.29465877240590571 -0.25348635156399174 -0.26901065448411721 -0.3062845588962036 -0.30177378742975702 -0.2928934074968631 -0.29100900310230593 -0.28129506596222809 -0.28992094249089995 -0.28885985058086028 -0.30091560985299243 -0.25775091822258189 -0.2931423074292131 -0.30416130474828695 -0.28280929256294246 -0.2895915411457532 -0.28067821879887062 -0.27290021502062006 -0.29995184992164897 -0.30304011339755454 -0.3103993784889007
leaf_weight=597.56922554969788 1313.0861852169037 5089.3713157176971 1614.0731415748596 538.84006333351135 1197.3407946825027 1224.9924418926239 2364.5828937292099 361.42905247211456 3090.8668664693832 642.59491658210754 31.077515006065369 40.621003866195679 322.27627766132355 87.604333639144897 4880.6380850076675 6423.0127077102661 32.790448904037476 71.453814029693604 1688.70811855793 99.83957576751709 41.599823236465454 176.67689633369446 772.04377830028534 26.672827839851379 27.162237524986267 62.644439697265625 38.908069968223572 187.44390940666199 72.922043085098267 82.220827102661133
leaf_count=2442 5366 20798 6596 2202 4893 5006 9663 1477 12631 2626 127 166 1317 358 19945 26248 134 292 6901 408 170 722 3155 109 111 256 159 766 298 336
internal_value=-0.293153 -0.291997 -0.293919 -0.305201 -0.301584 -0.292166 -0.296165 -0.294697 -0.292838 -0.286278 -0.292519 -0.29904 -0.313714 -0.305365 -0.293945 -0.292128 -0.306374 -0.306805 -0.28565 -0.28462 -0.284296 -0.288338 -0.299792 -0.307815 -0.269233 -0.293094 -0.287247 -0.295056 -0.285866 -0.296806
internal_weight=33201.1 30296.7 22676.3 2904.4 2043.29 12734.4 9941.87 6587.94 11210.2 7620.35 700.835 3353.92 861.116 1445.72 6193.72 9513.88 394.22 1295.47 6919.52 5230.81 5130.97 217.298 3136.63 1224.01 58.2398 150.249 1524.27 226.352 1297.91 1696.29
internal_count=135678 123809 92668 11869 8350 52040 40628 26922 45811 31141 2864 13706 3519 5908 25311 38879 1611 5294 28277 21376 20968 888 12818 5002 238 614 6229 925 5304 6932
is_linear=0
shrinkage=1


Tree=1
num_leaves=31
num_cat=0
split_feature=36 39 0 39 8 39 36 12 8 8 36 36 39 7 36 3 24 19 39 21 39 39 36 12 5 8 0 20 0 21
split_gain=143.228 56.3868 34.7444 34.483 23.4593 18.0501 17.3102 19.1147 15.3436 14.0858 14.4179 12.0359 11.4756 11.2915 11.136 10.2926 10.2833 10.1924 10.0927 9.94892 9.76651 8.89798 8.79087 9.01686 8.38469 8.37685 8.09941 7.87748 7.66947 7.34305
threshold=0.45367927849292761 0.43060103058815008 0.90000000596046459 0.47039029002189642 11.09999990463257 0.22928467392921451 0.40858867764472967 5.5499999523162851 10.775000095367433 11.366666316986086 0.38529324531555181 0.46583481132984167 0.4174636602401734 19.500000000000004 0.46074402332305914 0.77500000596046459 18.708333015441898 0.50961896777153026 0.33782301843166357 5.0999999046325692 0.23922257870435717 0.5315874218940736 0.40230366587638861 5.4500000476837167 0.36666667461395269 7.5499999523162851 0.63333335518836986 3.8999999761581425 1.0000000180025095e-35 7.9000000953674325
decision_type=2 2 2 2 2 2 2 2 2 2 2 2 2 2 2 2 2 2 2 2 2 2 2 2 2 2 2 2 2 2
left_child=1 2 9 4 17 15 19 13 -7 10 20 12 -6 27 -5 -4 -12 26 -10 24 -1 -15 23 -11 25 -3 -2 -8 -13 -9
right_child=3 6 5 14 11 8 7 29 18 22 16 28 -14 21 -16 -17 -18 -19 -20 -21 -22 -23 -24 -25 -26 -27 -28 -29 -30 -31
leaf_value=-0.028958954949056634 0.0065215959994608793 -0.023174910869793522 -0.027551919606342241 0.017928685044693055 -0.020167957810024308 0.00034700277401108961 0.0092245574417757249 -0.0047036934207243791 -0.012265371214005774 -0.00077967851238074516 -0.0010290362594886505 0.026818324029509205 0.00061486618431098178 0.011512277572142285 0.0092897370757899743 -0.0046590587470913478 0.0096988885066894241 -0.011226578108689489 -0.0058701826840492979 -0.0042676039773318986 -0.005748035134221131 0.043134392447957554 -0.0044752487751915154 -0.025507182272000946 0.022500587104629918 0.0056876755741331279 0.0020177028415499917 0.003060562285315158 -0.00098780561120401667 0.015369023908980539
leaf_weight=46.199818134307861 3918.0677036195993 27.646295577287674 172.85358029603958 530.31046237051487 181.49523824453354 596.9146381020546 600.31326048076153 837.14716674387455 1064.4106885939837 61.128100141882896 9606.8713430017233 24.717648565769196 100.33823893964291 173.02702176570892 1383.2145491242409 73.495670571923256 226.35197278857231 91.474763602018356 1542.4961985051632 1418.6343201249838 1066.0722358673811 25.207826793193817 3328.563186198473 100.45020109415054 59.945422857999802 160.48945680260658 1366.2506447434425 4039.7282886952162 331.08467522263527 45.749316304922104
leaf_count=189 15993 113 708 2165 742 2440 2453 3422 4355 250 39267 101 410 707 5647 301 925 374 6307 5799 4359 103 13608 411 245 656 5581 16507 1353 187
internal_value=0 -0.00183928 -0.00335752 0.00586307 0.00399408 -0.00786689 0.00183286 0.00314098 -0.00684335 -0.00227709 -0.00139148 -0.0050424 -0.0127286 0.00437776 0.0117132 -0.0209153 -0.000777625 0.00507205 -0.00849835 -0.00264081 -0.00678482 0.0160489 -0.00504491 -0.016429 0.00652166 0.00111571 0.00536306 0.00386706 0.00101313 -0.00360294
internal_weight=33200.6 25273.7 17885.8 7926.95 6013.43 3450.17 7387.89 5721.17 3203.82 14435.6 10945.5 637.636 281.833 4838.28 1913.53 246.349 9833.22 5375.79 2606.91 1666.72 1112.27 198.235 3490.14 161.578 248.081 188.136 5284.32 4640.04 355.802 882.896
internal_count=135678 103312 73120 32366 24554 14111 30192 23379 13102 59009 44740 2606 1152 19770 7812 1009 40192 21948 10662 6813 4548 810 14269 661 1014 769 21574 18960 1454 3609
is_linear=0
shrinkage=0.05


Tree=2
num_leaves=31
num_cat=0
split_feature=40 36 40 2 38 39 12 36 25 36 37 39 39 28 36 36 2 29 24 12 25 32 13 5 39 24 23 39 3 39
split_gain=161.425 108.202 31.6018 30.3314 25.4009 23.0243 20.3956 19.7343 18.9984 16.9609 16.2373 17.5838 12.276 12.0054 10.4689 9.65878 9.39645 9.34089 9.69065 9.27989 10.1368 9.04419 8.48498 7.64543 7.47612 7.34298 7.1589 7.78063 6.69595 6.50906
threshold=0.36913608014583593 0.44737932085990911 0.4185581654310227 0.55000001192092907 2.5000000000000004 0.47039029002189642 6.5499999523162851 0.39948512613773351 11.366666316986086 0.42079094052314764 19.500000000000004 0.46192643046379095 0.30090339481830602 2.1000000238418584 0.42165276408195501 0.38189247250556951 0.45000000298023229 2.1000000238418584 15.09999990463257 5.4500000476837167 12.09999990463257 0.22500000149011615 5.7750000953674325 0.55000001192092907 0.54519215226173412 18.633333206176761 5.0999999046325692 0.35753281414508825 0.90000000596046459 0.41941863298416143
decision_type=2 2 2 2 2 2 2 2 2 2 2 2 2 2 2 2 2 2 2 2 2 2 2 2 2 2 2 2 2 2
left_child=3 2 6 4 -1 8 9 26 -3 23 11 -9 -5 21 -12 -6 -11 -7 24 20 -17 -10 -21 -2 -19 -15 27 -4 -28 -14
right_child=1 5 7 12 15 17 -8 10 13 16 14 -13 29 25 -16 19 -18 18 -20 22 -22 -23 -24 -25 -26 -27 28 -29 -30 -31
leaf_value=0.00070787433758378649 -0.0071332381814753869 -0.017627043387981 -0.0072246365197711831 -0.024434437847415547 -0.025324644790953577 0.0097925593178933984 -0.014113390325114959 -0.00051299466977403323 0.0053069375009228408 0.0016932609874095663 0.013070102216047971 0.0039866581880500995 -0.014476958733055614 -0.0068336008564504076 0.003551199089187248 -0.028581264558565512 -0.0074492152548092791 0.020825637429973957 0.0041861707474739806 -0.027663878024735186 -0.0075463378437105599 0.022210446410880724 0.0024778843467977013 -4.6767474334175495e-05 0.050020699812977992 0.016580679309297172 -0.003036092343579612 0.01008542463642708 -0.009370065518054126 0.0056162648399247072
leaf_weight=597.520687058568 2087.524043828249 92.004081472754478 97.733968064188957 488.61854417622089 117.50703056156635 1751.2752653062344 463.043935790658 10320.219421342015 5200.3642099946737 1759.4171924442053 361.13692499697208 2745.8221592754126 325.64156469702721 295.93444617092609 1501.1749423295259 59.828256249427795 332.2086523771286 88.555686682462692 57.156323254108429 121.01734952628613 1117.5768888443708 79.584602177143097 26.599328249692917 474.11863979697227 33.862092018127441 35.320772141218185 1793.7925415784121 179.50350426137447 552.94290629029274 42.95626200735569
leaf_count=2442 8539 376 400 2007 482 7138 1897 42184 21217 7194 1475 11216 1336 1209 6131 245 1359 361 233 496 4576 325 109 1939 138 144 7338 734 2262 176
internal_value=0 0.00107811 -0.00065486 -0.0112715 -0.00792106 0.0062261 -0.00411224 0.000351859 0.00461797 -0.00310603 0.00105615 0.000431158 -0.0191788 0.00499331 0.00542254 -0.0115087 0.00022351 0.0109535 0.0219049 -0.0102282 -0.00868305 0.00557477 -0.022105 -0.00583246 0.0297765 -0.00417746 -0.00364324 0.00388558 -0.00454587 -0.0120502
internal_weight=33200 30302.7 22668.6 2897.27 2040.05 7634.06 5116.31 17552.3 5703.21 4653.27 14928.4 13066 857.216 5611.2 1862.31 1442.53 2091.63 1930.85 179.574 1325.02 1177.41 5279.95 147.617 2561.64 122.418 331.255 2623.97 277.237 2346.74 368.598
internal_count=135678 123809 92668 11869 8350 31141 20928 71740 23271 19031 61006 53400 3519 22895 7606 5908 8553 7870 732 5426 4821 21542 605 10478 499 1353 10734 1134 9600 1512
is_linear=0
shrinkage=0.05


Tree=3
num_leaves=31
num_cat=0
split_feature=36 39 0 39 8 8 36 16 39 36 39 2 39 20 20 36 15 2 14 23 0 8 36 39 5 8 14 23 14 36
split_gain=117.102 48.5742 29.3587 27.16 19.3713 15.07 14.7739 16.797 11.8869 17.2628 10.4693 10.1765 10.056 9.9605 9.33459 9.0135 8.95798 9.30004 8.44447 8.39842 8.27429 8.24508 13.6582 8.07321 7.57566 7.64569 7.09783 11.419 7.0581 6.69651
threshold=0.44737932085990911 0.43060103058815008 1.1000000238418581 0.4539570957422257 11.09999990463257 7.4500000476837167 0.40858867764472967 5.5499999523162851 0.23789181560277942 0.40713584423065191 0.40778240561485296 0.70833334326744091 0.39326544106006628 7.5499999523162851 3.7749999761581425 0.46621234714984899 0.50961896777153026 1.0000000180025095e-35 0.47402159869670873 5.0999999046325692 0.63333335518836986 13.366666316986086 0.40713584423065191 0.45908276736736303 0.36666667461395269 7.5499999523162851 0.62243187427520763 7.9000000953674325 0.35624311864376074 0.41667729616165167
decision_type=2 2 2 2 2 2 2 2 2 2 2 2 2 2 2 2 2 2 2 2 2 2 2 2 2 2 2 2 2 2
left_child=1 2 5 4 16 10 19 14 9 -7 29 18 21 -10 28 -6 20 -18 -5 24 -2 22 -4 -16 25 -3 27 -9 -8 -1
right_child=3 6 12 11 15 8 7 26 13 -11 -12 -13 -14 -15 23 -17 17 -19 -20 -21 -22 -23 -24 -25 -26 -27 -28 -29 -30 -31
leaf_value=0.0074935271453411964 0.005831189909912997 -0.022397578076382641 -0.017934901053812274 0.0098344508577617382 -0.011511685002592101 -0.0225464946732345 0.018254770620947512 -0.0032824802827018588 -0.0020744279188798184 -0.0051304974517399947 0.02023206983978483 -0.0042372108006001599 -0.0020917203080000244 -0.0088180198359122074 0.0005958904060198426 0.00056489576879650632 -0.021699979259241262 0.0078297652956701193 0.026479283449216878 -0.0039187465412989829 0.001217949746863959 -0.018436693560568707 -0.0052316088638681068 0.0050517770808287529 0.02113902937989454 0.0052086266771919935 -0.016787942175730371 0.023696882133916568 0.0056985572861637888 -0.0028490374368612117
leaf_weight=305.63424970209599 3770.4228970557451 27.571840330958366 305.82140783965588 2173.7199754416943 285.31175276637077 162.92927035689354 188.5180831104517 752.7850621342659 13354.761231899261 1123.9163578003645 91.983731046319008 120.77126321196556 384.08071184158325 572.0553403198719 1670.3699449002743 325.84570443630219 63.992199093103409 41.78143110871315 79.840216338634491 1417.1362500190735 1330.8458279520273 320.50410199165344 715.64101175963879 2652.8553168028593 60.167278811335564 160.70965614914894 87.546143889427185 39.237165227532387 299.2828376442194 312.64557589590549
leaf_count=1250 15368 113 1255 8850 1169 669 769 3079 54632 4601 376 492 1572 2342 6822 1331 262 171 325 5799 5433 1317 2934 10829 245 656 358 160 1221 1278
internal_value=0 -0.00170027 -0.00312334 0.00518681 0.00333916 -0.00244912 0.00171067 0.00292474 -0.00278264 -0.00738652 0.0046476 0.00969725 -0.00931898 -0.00235445 0.00408849 -0.0050513 0.00433032 -0.00987469 0.0104582 -0.00242082 0.00463351 -0.0113627 -0.00908696 0.003337 0.0059865 0.000841681 -0.00340719 -0.0018581 0.0106569 0.00223097
internal_weight=33198.7 25006.2 17650 8192.53 5818.2 15923.9 7356.18 5690.59 15213.7 1286.85 710.264 2374.33 1726.05 13926.8 4811.03 611.157 5207.04 105.774 2253.56 1665.59 5101.27 1341.97 1021.46 4323.23 248.449 188.281 879.568 792.022 487.801 618.28
internal_count=135678 102277 72226 33401 23734 65148 30051 23238 62244 5270 2904 9667 7078 56974 19641 2500 21234 433 9175 6813 20801 5506 4189 17651 1014 769 3597 3239 1990 2528
is_linear=0
shrinkage=0.05


Tree=4
num_leaves=31
num_cat=0
split_feature=40 39 40 38 37 24 12 39 12 40 39 0 37 37 19 19 27 33 40 24 21 24 0 40 19 13 37 24 8 27
split_gain=141.343 54.6157 26.3617 24.3107 20.6437 17.2736 16.5994 15.9863 14.7653 13.0429 13.0078 11.7936 11.4925 18.999 11.1456 10.9604 10.3287 10.1158 9.89705 9.73325 9.56816 9.32185 8.8287 8.73267 9.71701 8.64365 8.36894 7.80595 7.79073 9.05313
threshold=0.36913608014583593 0.46192643046379095 0.43394440412521368 2.5000000000000004 7.5000000000000009 12.09999990463257 5.5499999523162851 0.3052296787500382 4.9000000953674325 0.44063986837863928 0.28733812272548681 1.1000000238418581 13.000000000000002 19.500000000000004 0.36023256182670599 0.30628703534603124 20.899999618530277 1.0000000180025095e-35 0.43498544394969946 10.775000095367433 4.0999999046325692 18.708333015441898 0.36666667461395269 0.33421979844570165 0.45035210251808172 5.7750000953674325 6.5000000000000009 11.449999809265138 13.366666316986086 9.7750000953674334
decision_type=2 2 2 2 2 2 2 2 2 2 2 2 2 2 2 2 2 2 2 2 2 2 2 2 2 2 2 2 2 2
left_child=3 2 5 11 14 28 23 21 12 17 22 -1 26 19 27 -15 -12 20 -9 -14 -10 -6 -7 -5 -25 -8 -3 -4 29 -2
right_child=1 8 4 6 7 10 25 18 9 -11 16 -13 13 15 -16 -17 -18 -19 -20 -21 -22 -23 -24 24 -26 -27 -28 -29 -30 -31
leaf_value=-0.00060806879753320757 -0.010221845041627063 0.0051306997675171946 -0.012140596641682946 -0.014943253053875656 0.0082079631637480086 0.00928954639562188 -0.027299188793799459 0.010954004127664365 -0.012456121762917606 0.018416589354574641 -0.0018281871897184326 -0.018309543960109673 0.024586268299604853 0.026455601181672273 0.0003523296608953665 0.006233392589174983 0.013167878467531306 -0.0094123368244647676 0.0017773227701295036 -0.003183215809422549 0.0048860541775219337 0.038319633491835911 0.0010511682864617312 -0.006351015517084899 -0.027962556564932434 -0.0038971799580763051 0.010224540014367366 -0.001810853862623492 -0.011153140595722116 -0.0021697621972683778
leaf_weight=688.43128827214241 455.47489127516747 1483.5485847890377 314.00055004656315 893.22052793204784 1141.0761356204748 439.93697525560856 275.52427613735199 314.41032856702805 94.538867771625519 80.091785490512848 7856.1990433782339 107.67587229609489 30.592924565076828 71.218712732195854 5206.6331556737423 998.0049242079258 114.18155212700367 322.51850840449333 4440.0009298622608 875.49349540472031 440.93282607197762 24.992493212223053 1267.9788828194141 820.78752952814102 54.765404522418976 49.838404506444931 1861.510034635663 452.63542166352272 483.49075242877007 1537.5798973590136
leaf_count=2817 1864 6052 1284 3672 4656 1797 1137 1284 386 327 32117 444 125 290 21287 4062 467 1317 18129 3579 1801 102 5184 3369 225 205 7574 1850 1983 6292
internal_value=0 0.00100707 -7.48258e-05 -0.0105615 0.00159746 -0.00171324 -0.0133906 0.00368975 0.00516705 -0.000591366 -0.000756282 -0.00307345 0.00618691 0.00313737 -0.000472708 0.00765057 -0.00160697 -0.0024335 0.00239379 -0.002166 0.00174278 0.00893926 0.00319627 -0.0114302 -0.00779194 -0.0238366 0.00797728 -0.00609484 -0.00543928 -0.00403085
internal_weight=33197.3 30307 24048.6 2890.24 11893.7 12154.8 2094.14 5920.48 6258.45 938.082 9678.3 796.107 5320.37 1975.31 5973.27 1069.22 7970.38 857.99 4754.41 906.086 535.472 1166.07 1707.92 1768.77 875.553 325.363 3345.06 766.636 2476.55 1993.05
internal_count=135678 123809 98296 11869 48592 49704 8608 24171 25513 3831 39565 3261 21682 8056 24421 4352 32584 3504 19413 3704 2187 4758 6981 7266 3594 1342 13626 3134 10139 8156
is_linear=0
shrinkage=0.05


Tree=5
num_leaves=31
num_cat=0
split_feature=40 36 40 2 39 39 25 36 37 37 12 8 37 14 8 2 21 39 40 29 21 24 24 39 39 32 1 28 24 8
split_gain=128.382 88.8179 39.0221 20.7294 17.4513 16.9098 16.3434 12.3071 12.0112 21.6985 11.1169 10.6923 11.8793 9.42462 9.11124 9.10273 8.94206 8.92524 14.3358 8.46835 8.02689 7.89569 7.79242 7.65997 6.9225 6.9054 7.75372 6.66914 5.99279 8.11277
threshold=0.34676563739776617 0.44737932085990911 0.39875504374504095 0.55000001192092907 0.46553745865821844 0.48287066817283636 11.366666316986086 0.40230366587638861 19.500000000000004 17.500000000000004 4.5499999523162851 13.900000095367433 9.5000000000000018 0.32373654842376715 6.0999999046325692 -0.90000000596046437 4.0999999046325692 0.27325232326984411 0.43826834857463842 2.8999999761581425 6.0999999046325692 10.550000190734865 18.774999618530277 0.2430064603686333 0.23922257870435717 0.55000001192092907 0.63333335518836986 2.4500000476837163 15.550000190734865 10.900000095367433
decision_type=2 2 2 2 2 2 2 2 2 2 2 2 2 2 2 2 2 2 2 2 2 2 2 2 2 2 2 2 2 2
left_child=3 2 15 7 8 6 -3 24 9 -4 14 12 23 -13 -6 -2 -12 18 -8 28 -5 -15 -10 -9 -1 26 -17 -19 29 -7
right_child=1 5 4 20 10 19 17 11 22 -11 16 13 -14 21 -16 25 -18 27 -20 -21 -22 -23 -24 -25 -26 -27 -28 -29 -30 -31
leaf_value=-0.045346476588756873 0.0079689647710045435 -0.014904735776461835 -0.00069814199445800552 -0.022478519107060013 -0.019999840297175098 0.020947483128603839 0.0047195095940313139 -0.0053628667441366603 0.0021621137972418448 -0.0086621457131655574 -0.0093744774042997213 0.0013425013432766721 -0.009381448808797271 0 0.0080170477507983829 -0.0052671269098050573 0.0020992963107414387 0.0039361724912731245 0.017071740869609161 0.031224058847893778 -0.0031373181404270737 -0.030975730181670685 0.016284070523097046 0.0093998971703063185 -0.016623647755970344 0.014337039542817032 -0.011114898683192148 -0.0062220238910316687 -0.0015040895549567677 0.0087744580828957395
leaf_weight=26.26032742857933 107.37543694674969 107.9020799100399 13836.73269122839 538.15600349009037 27.465895220637321 157.01677750051022 771.2161096483469 163.64010573923588 1943.2055941820145 910.73844203352928 180.11400045454502 42.592274636030197 550.88692615926266 24.30524642765522 1087.7488749474287 2047.5110423713923 2413.4208005666733 4865.0148326605558 343.20007145404816 44.675326108932495 63.740625336766243 104.92970533668995 101.74327589571476 182.90368822216988 135.3914230465889 36.113800302147865 806.50852693617344 163.52699233591557 115.20078374445438 1296.433761164546
leaf_count=109 440 442 56603 2227 112 637 3142 670 7937 3728 736 175 2264 100 4432 8399 9853 19821 1397 181 264 432 415 748 558 148 3307 668 468 5265
internal_value=-5.37344e-08 0.000751212 -0.000787225 -0.0128561 -6.67405e-06 0.00535036 0.00416318 -0.00907632 -0.000693537 -0.00119277 0.00309525 -0.00707097 -0.00482206 -0.0184822 0.00727009 -0.00611383 0.00128623 0.00450692 0.00856971 0.00992379 -0.0204889 -0.0251273 0.00289217 0.00236633 -0.0219396 -0.00665083 -0.00693501 0.00359852 0.00926226 0.0101337
internal_weight=33195.7 31362.9 23498.7 1832.81 20501.2 7864.19 6250.86 1230.91 16792.4 14747.5 3708.75 1069.26 897.431 171.827 1115.21 2997.51 2593.53 6142.96 1114.42 1613.33 601.897 129.235 2044.95 346.544 161.652 2890.13 2854.02 5028.54 1568.65 1453.45
internal_count=135678 128131 96110 7547 83816 32021 25470 5056 68683 60331 15133 4389 3682 707 4544 12294 10589 25028 4539 6551 2491 532 8352 1418 667 11854 11706 20489 6370 5902
is_linear=0
shrinkage=0.05


Tree=6
num_leaves=31
num_cat=0
split_feature=40 36 40 2 39 39 27 27 36 8 8 8 8 37 9 14 32 2 29 39 6 39 8 21 39 24 9 9 39 27
split_gain=116.306 80.1327 35.2504 18.8441 15.7355 15.3254 14.1611 11.76 11.2471 10.9776 10.3069 10.2971 9.7059 10.7453 9.12447 8.60053 8.54034 8.23597 8.2022 8.37315 8.17922 7.86557 7.66778 7.38689 7.24696 7.22356 7.05416 6.95496 6.91699 6.55702
threshold=0.34676563739776617 0.44737932085990911 0.39875504374504095 0.55000001192092907 0.46553745865821844 0.47039029002189642 11.366666316986086 20.899999618530277 0.40230366587638861 11.366666316986086 9.5500001907348651 6.0999999046325692 13.900000095367433 9.5000000000000018 10.900000095367433 0.32373654842376715 0.22500000149011615 -0.90000000596046437 2.1000000238418584 0.54519215226173412 6.5000000000000009 0.27325232326984411 14.09999990463257 6.4500000476837167 0.5247882902622224 10.550000190734865 8.0999999046325701 9.291666507720949 0.2430064603686333 19.899999618530277
decision_type=2 2 2 2 2 2 2 2 2 2 2 2 2 2 2 2 2 2 2 2 2 2 2 2 2 2 2 2 2 2
left_child=3 2 17 8 7 6 -3 9 -1 -4 11 -6 13 28 22 -14 -12 -2 -7 24 -15 -16 -8 26 -20 -17 -5 -28 -10 -19
right_child=1 5 4 23 10 18 14 -9 12 -11 16 -13 15 20 21 25 -18 29 19 -21 -22 -23 -24 -25 -26 -27 27 -29 -30 -31
leaf_value=-0.020971806686573613 0.0075685426170175934 -0.014773987083936749 -6.681933631953369e-05 -0.045368423105790527 -0.0196910863056073 0.0078594376674381624 -0.00036515528105098721 0.011411487722873898 -0.0051021966822601232 -0.0030514454484000522 0.002345462648448694 0.010354479891707985 0.0012781150575949737 -0.018405302021098392 0.008539109515212126 0 -0.010037331991424805 -0.0067078688323679182 0.017665044447186959 0.036838333849054973 -0.0048741631532418037 0.0037355647651646563 -0.021806359660696523 -0.00029587132181806104 -0.011132505653865964 -0.029617331083507187 0.0024951955872593878 -0.021068228069927367 0.008922592313302306 0.0084413442187990084
leaf_weight=161.01913692057133 107.50580796599388 98.314144372940063 12498.84962874651 29.295860335230827 27.633101671934128 1762.5258841216564 413.61747497320175 197.1375430971384 163.50613737106323 4094.6115601062775 2958.4425958693027 580.69565278291702 42.601532056927681 160.82661691308022 1080.3487468361855 24.30524642765522 143.529107645154 2816.8769982606173 107.82828895747662 48.50468809902668 389.20576366782188 4288.8956533074379 44.727795094251633 48.503147274255753 24.687481731176376 104.3615807145834 31.006221786141396 490.78689295053482 183.15390580892563 70.201127246022224
leaf_count=667 440 404 51115 122 113 7151 1688 805 670 16763 12070 2365 175 662 4395 100 585 11566 437 196 1602 17467 183 201 100 432 129 2039 748 288
internal_value=-4.13098e-07 0.000713785 -0.000747992 -0.0122519 -6.36708e-06 0.00508041 0.00380715 -0.000658828 -0.00864626 -0.000805093 0.00293831 0.00888866 -0.00672881 -0.00458562 0.00412988 -0.0176229 0.00175835 -0.00581341 0.00894181 0.0191428 -0.00892823 0.00470956 -0.00259746 -0.0195474 0.0120285 -0.0239962 -0.0211894 -0.0196161 0.00224462 -0.00632526
internal_weight=33193.5 31364.9 23495.5 1828.57 20500.9 7869.45 5925.9 16790.6 1228.98 16593.5 3710.3 608.329 1067.96 896.692 5827.59 171.268 3101.97 2994.58 1943.55 181.02 550.032 5369.24 458.345 599.592 132.516 128.667 551.089 521.793 346.66 2887.08
internal_count=135678 128131 96110 7547 83816 32021 24137 68683 5056 67878 15133 2478 4389 3682 23733 707 12655 12294 7884 733 2264 21862 1871 2491 537 532 2290 2168 1418 11854
is_linear=0
shrinkage=0.05


Tree=7
num_leaves=31
num_cat=0
split_feature=40 36 40 2 38 39 27 36 20 37 27 40 5 39 14 28 32 8 36 3 5 15 15 32 36 2 24 9 14 15
split_gain=105.73 67.6247 25.2743 21.5677 18.3198 13.6378 13.7786 12.8717 12.6608 12.5827 11.5841 11.2351 11.1409 10.5707 9.54454 9.37719 8.52331 8.1634 8.02364 8.01717 12.2305 7.65364 25.0985 9.88586 7.44986 9.62434 6.59391 6.56756 6.00405 5.77696
threshold=0.36913608014583593 0.44737932085990911 0.43680095672607427 0.55000001192092907 2.5000000000000004 0.47039029002189642 11.366666316986086 0.41586796939373022 7.7083332538604745 8.5000000000000018 20.899999618530277 0.39875504374504095 -0.22500000149011609 0.30090339481830602 0.56830143928527843 2.1000000238418584 0.22500000149011615 8.0999999046325701 0.38189247250556951 0.55000001192092907 0.45000000298023229 0.46190130710601812 0.52316638827323925 0.36666667461395269 0.46074402332305914 0.45000000298023229 18.633333206176761 9.9000000953674334 0.47520491480827337 0.27675941586494451
decision_type=2 2 2 2 2 2 2 2 2 2 2 2 2 2 2 2 2 2 2 2 2 2 2 2 2 2 2 2 2 2
left_child=3 2 8 4 29 6 -3 17 10 14 11 -2 -11 -5 -9 16 -8 -4 -6 27 -21 23 -23 -20 25 -7 -17 -10 -26 -1
right_child=1 5 7 13 18 24 15 9 19 12 -12 -13 -14 -15 -16 26 -18 -19 21 20 -22 22 -24 -25 28 -27 -28 -29 -30 -31
leaf_value=-0.020569803088322881 -0.0052440506347272379 -0.01532353727185609 0.0064415669461487931 -0.020787545883207966 -0.022059226298042516 0.015640383868348536 0.0042611362473564483 0.0020820175707965535 -0.015295713792254508 0.012167014629887214 0.011805495308219798 -0.0011853920518126047 0.0037493028994588767 -0.0092591556349555498 -0.0056683831309853406 -0.0066205456576032221 0.020617349663466247 -0.0016164476006887954 -0.0081209090447292142 -0.026093236598790221 0 -0.044387425090291248 0.0061209353850325702 0.012859986147270472 0.0059202374313073111 -0.0065117043640616689 0.015532233383448835 0.0048017064150701928 0.024789216947489947 0.0021332019283132465
leaf_weight=27.361311689019203 2052.4592463523149 91.279660448431969 343.01154363155365 481.51023745536804 115.99844047427177 500.89604023098946 5214.6838395446539 3611.6278463453054 62.836011305451393 548.29419152438641 154.49023793637753 10239.663898199797 1441.4381428658962 364.83159916102886 443.06617286801338 295.71636706590652 79.912562161684036 3448.8921592533588 1164.3740864098072 137.62798576056957 68.505643039941788 52.653016000986099 42.542148008942604 56.345730647444725 1346.8579401522875 51.553636506199837 35.418394088745117 104.83548504114151 42.75469046831131 569.57355189323425
leaf_count=112 8426 376 1401 2007 482 2028 21217 14756 258 2236 630 41888 5879 1512 1812 1209 325 14106 4800 565 281 218 176 232 5460 209 144 430 173 2330
internal_value=-9.472e-07 0.000867598 -0.000504514 -0.00916176 -0.0063336 0.00492886 0.0036892 0.00140038 -0.00196796 0.0028336 -0.00169229 -0.00186586 0.00609134 -0.015881 0.00122657 0.00400747 0.00452042 -0.000877927 -0.00939939 -0.0110228 -0.0176026 -0.00823267 -0.0218968 -0.00711258 0.00855773 0.0135121 -0.004097 -0.00267411 0.00655354 0.000985625
internal_weight=33191 30315.8 22656.7 2875.19 2028.85 7659.07 5717.01 9836.33 12820.4 6044.43 12446.6 12292.1 1989.73 846.342 4054.69 5625.73 5294.6 3791.9 1431.91 373.805 206.134 1315.91 95.1952 1220.72 1942.06 552.45 331.135 167.671 1389.61 596.935
internal_count=135678 123809 92668 11869 8350 31141 23271 40190 52478 24683 50944 50314 8115 3519 16568 22895 21542 15507 5908 1534 846 5426 394 5032 7870 2237 1353 688 5633 2442
is_linear=0
shrinkage=0.05


Tree=8
num_leaves=31
num_cat=0
split_feature=36 39 8 39 36 8 39 24 37 13 36 36 7 12 37 8 25 39 15 36 29 39 20 36 25 20 6 36 21 39
split_gain=73.6827 32.0859 18.9149 18.0325 17.4325 16.3007 15.1777 12.7296 13.1931 13.7284 12.5437 11.8105 14.4537 13.6784 10.4252 10.1777 11.9569 9.66516 8.96123 8.63914 8.55231 7.3066 10.3749 8.71053 8.01595 7.2317 6.88652 7.08273 6.79615 6.6046
threshold=0.45367927849292761 0.43060103058815008 13.22499990463257 0.42611734569072729 0.40230366587638861 11.09999990463257 0.23922257870435717 17.366666793823246 14.500000000000002 5.9000000953674325 0.46583481132984167 0.40858867764472967 19.500000000000004 5.5499999523162851 13.000000000000002 7.4500000476837167 11.09999990463257 0.40688103437423712 0.53640863299369823 0.45651237666606909 1.4499999880790713 0.43887788057327276 5.3666667938232431 0.38333834707736975 10.550000190734865 7.7083332538604745 4.5000000000000009 0.46857959032058721 5.7750000953674325 0.27325232326984411
decision_type=2 2 2 2 2 2 2 2 2 2 2 2 2 2 2 2 2 2 2 2 2 2 2 2 2 2 2 2 2 2
left_child=1 2 4 5 6 18 20 8 -4 -10 -7 21 13 -13 -8 17 -17 -6 29 -5 -1 22 23 -3 -23 -9 -12 -28 -14 -2
right_child=3 11 7 19 15 10 14 25 9 -11 26 12 28 -15 -16 16 -18 -19 -20 -21 -22 24 -24 -25 -26 -27 27 -29 -30 -31
leaf_value=0 0.0067481466712719139 0.01539025249939679 -0.006501747149854512 0.02271793438150882 0.002594318548470561 -0.015753174532378466 0.0030304946579522876 0.003820089836487706 -0.022352053086639283 0.0047816383899737542 -0.019463345401793911 0.0030611805703994362 0.0103574648446557 -0.0038325715932103275 -0.0056234041461306668 -0.0045847377412200274 -0.00058211280046121259 0.020598103433070745 -0.018530346230808268 0.0066964000206719597 -0.027793042267433593 0.010922359348141585 0.03224184731162312 -0.0052787710324910392 -0.0046467002828188371 -0.022682447176247629 0.018937538093056899 -0.00096205927452168547 0.033157263211471069 0.0023008498841734361
leaf_weight=38.468003481626511 1152.0299354344606 74.433016762137413 1532.9438978880644 86.442387714982033 563.43608050048351 203.23407240211964 398.6179341673851 333.99481862783432 266.96131600439548 53.87749508023262 36.228070169687271 4650.1114109307528 193.41062340140343 846.5122999548912 2513.5351061224937 2321.3469594269991 9589.3662895262241 85.10308949649334 44.363235503435135 3027.0241488963366 109.77369882166386 85.429483339190483 29.829016253352165 149.45583885908127 1325.4854435622692 25.738043278455734 54.524592265486717 204.00409473478794 40.483908712863922 3152.0936641097069
leaf_count=159 4687 305 6304 350 2304 837 1634 1371 1106 222 148 18960 788 3466 10322 9509 39280 347 182 12279 456 349 122 612 5425 106 223 833 165 12827
internal_value=-1.21972e-06 -0.00132535 -0.00247405 0.00419162 -0.00185832 0.00227507 -0.0052429 -0.00680208 -0.00847323 -0.0177167 -0.00625989 0.00144125 0.00252011 0.00199395 -0.00442901 -0.00103088 -0.00136494 0.00505132 0.00326068 0.00716355 -0.0207934 -0.00225631 0.00548671 0.0015575 -0.00367219 0.00173986 0.000263523 0.00325204 0.0146574 0.00349959
internal_weight=33188.3 25228.3 17833.2 7959.94 15619.6 4846.48 3060.39 2213.52 1853.78 320.839 497.991 7395.15 5730.52 5496.62 2912.15 12559.3 11910.7 648.539 4348.49 3113.47 148.242 1664.63 253.718 223.889 1410.91 359.733 294.757 258.529 233.895 4304.12
internal_count=135678 103312 73120 32366 64011 19737 12571 9109 7632 1328 2041 30192 23379 22426 11956 51440 48789 2651 17696 12629 615 6813 1039 917 5774 1477 1204 1056 953 17514
is_linear=0
shrinkage=0.05


Tree=9
num_leaves=31
num_cat=0
split_feature=40 36 40 2 40 0 38 39 25 8 36 8 15 25 36 36 8 38 15 8 15 12 24 29 21 3 21 39 39 36
split_gain=94.5665 58.928 27.6023 15.1789 13.5714 12.5542 11.8738 11.6395 12.4074 10.554 13.2843 9.79839 9.31358 9.15176 9.08577 9.01596 8.37058 9.05959 7.62647 7.34613 7.27993 7.253 7.04686 7.00408 6.92846 6.87353 6.24709 6.23767 6.22853 6.22165
threshold=0.34676563739776617 0.44737932085990911 0.39875504374504095 0.55000001192092907 0.43736350536346441 1.1000000238418581 9.5000000000000018 0.48287066817283636 12.366666316986086 13.550000190734865 0.4105322808027268 10.291666507720949 0.51042118668556224 11.291666507720949 0.40230366587638861 0.43332804739475256 13.900000095367433 3.5000000000000004 0.40081967413425451 17.899999618530277 0.22599846124649051 4.6333332061767587 10.366666316986086 2.8999999761581425 6.0999999046325692 0.90000000596046459 5.7750000953674325 0.2430064603686333 0.23922257870435717 0.42953686416149145
decision_type=2 2 2 2 2 2 2 2 2 2 2 2 2 2 2 2 2 2 2 2 2 2 2 2 2 2 2 2 2 2
left_child=3 2 18 14 9 6 -6 8 11 10 -4 13 20 -3 28 -11 17 27 19 26 -10 -18 -23 -9 25 -5 -2 -16 -1 -7
right_child=1 7 4 24 5 29 -8 23 12 15 -12 -13 -14 -15 16 -17 21 -19 -20 -21 -22 22 -24 -25 -26 -27 -28 -29 -30 -31
leaf_value=-0.04133329629621238 0.0058156063429359028 -0.009751791506097212 -0.0034612220865433046 -0.021801541660163688 0.0012689655882823982 -0.0034713004278559183 0.0069717769424828815 0.0075689034013627964 -0.019340289994967508 -0.0069172622043838713 0.00054303309026176405 -0.017051465446276722 -0.009540443501741545 0.027341469674231247 -0.0048375320775662705 0.0097406011695123761 0.0053895947103846341 -0.0081200128194196149 -0.0063479450858072942 -0.01968337516528414 0.0042133212570866427 0.0018490411905514245 -0.02614603717017765 0.02746100263670738 -0.0015396346588952246 -0.00466409302677039 -0.005158623470170997 0.0084777658548936159 -0.013964879114700041 -0.019131357144187285
leaf_weight=25.661022454500198 337.0649386793375 34.756747633218765 2899.7239101976156 458.36366230249405 7563.4364752322435 556.3031859844923 1040.1871554255486 1574.5370251536369 30.677477598190308 1068.2399857193232 7212.8054603040218 126.94126103818417 125.28582857549191 27.773467928171158 163.35578045248985 84.977915689349174 29.347476333379745 548.42639002203941 2402.0480446964502 41.80335159599781 5917.2112206071615 25.463749811053276 115.48360334336758 44.978137284517288 63.324678108096123 72.87833608686924 206.35003252327442 183.37086035311222 133.95352700352669 71.230423867702484
leaf_count=109 1387 143 11881 1922 30909 2277 4237 6370 125 4382 29491 522 513 113 670 348 121 2264 9885 173 24054 105 481 181 264 305 849 748 558 291
internal_value=-1.07345e-06 0.000641334 -0.000613352 -0.011077 4.00311e-05 0.00146235 0.00196281 0.00438193 0.00339607 -0.00112325 -0.000603155 -0.00910335 0.00379301 0.00667294 -0.00783721 -0.0056534 -0.00611257 -0.00412176 -0.00510189 0 0.00408118 -0.0162628 -0.0209584 0.00816997 -0.0176618 -0.0195237 0.00159891 0.00214098 -0.0189766 -0.00534369
internal_weight=33186 31366.3 23484.2 1819.63 20496.9 9231.16 8603.62 7882.16 6262.65 11265.7 10112.5 189.471 6073.17 62.5302 1225.06 1153.22 1065.45 895.153 2987.27 585.218 5947.89 170.295 140.947 1619.52 594.567 531.242 543.415 346.727 159.615 627.534
internal_count=135678 128131 96110 7547 83816 37714 35146 32021 25470 46102 41372 778 24692 256 5056 4730 4389 3682 12294 2409 24179 707 586 6551 2491 2227 2236 1418 667 2568
is_linear=0
shrinkage=0.05


Tree=10
num_leaves=31
num_cat=0
split_feature=40 36 40 2 36 39 27 24 12 39 27 36 15 8 36 15 27 3 36 15 12 21 36 39 27 29 21 9 9 3
split_gain=85.6792 53.16 25.2043 13.8096 13.5871 13.5694 11.8729 11.7519 12.1333 10.5027 11.2064 9.91354 9.41247 8.89581 8.57718 8.42113 8.29758 7.69862 10.2898 7.16822 8.08001 7.34235 7.10334 6.67664 6.57025 6.33587 6.32181 6.58434 6.47837 5.98342
threshold=0.34676563739776617 0.44737932085990911 0.4185581654310227 0.55000001192092907 0.39948512613773351 0.43510626256465917 19.44999980926514 11.900000095367433 3.1000000238418584 0.48287066817283636 12.366666316986086 0.41915509104728704 0.6546536684036256 10.291666507720949 0.46654474735260015 0.51042118668556224 11.291666507720949 0.45000000298023229 0.42982566356658941 0.52976614236831676 5.4500000476837167 5.9000000953674325 0.42845103144645696 0.27325232326984411 11.366666316986086 2.8999999761581425 6.4500000476837167 8.0999999046325701 9.291666507720949 0.90000000596046459
decision_type=2 2 2 2 2 2 2 2 2 2 2 2 2 2 2 2 2 2 2 2 2 2 2 2 2 2 2 2 2 2
left_child=3 2 5 14 29 6 11 12 -9 10 13 -2 -6 16 19 23 -3 24 -19 20 22 -21 -1 -12 -7 -11 27 -5 -29 -4
right_child=1 9 4 26 7 17 -8 8 -10 25 15 -13 -14 -15 -16 -17 -18 18 -20 21 -22 -23 -24 -25 -26 -27 -28 28 -30 -31
leaf_value=-0.011415468910873236 -0.0069717760289582558 -0.0093054863607605152 -0.0016339529840906177 -0.041836036486398789 -0.0014640987538164126 0.011015912912045208 0.0093000147464431492 0.0083727782792260719 0.0014279111979285557 0.0071851389340545878 0.0074069237201374628 -0.0024733580260911836 0.016141678332354741 -0.016258771394458246 0.0040489914950214067 -0.0090843132984949233 0.025983026508359694 0.0034642586008944128 0.02384994034526489 -0.0056303013422431434 -0.021363115111642735 0.026284532425870019 -0.0017455053919379284 0.0030662064959968288 -0.0057709296581312242 0.026098238548866982 0 0.0044870168321326483 -0.018296197078690086 -0.0073588767249207435
leaf_weight=580.0315563082695 2543.4716800004244 34.699950352311134 2022.601272135973 28.69277136027813 4479.2326214909554 68.904768973588943 151.20916342735291 672.88812226057053 9704.0450502932072 1575.7765905559063 1099.490297332406 2411.4220059067011 75.038983359932899 126.58064147830009 139.17971721291542 125.10289959609509 27.866320744156837 370.49081568419933 73.781427577137947 46.803958520293236 138.21661627292633 26.018319353461266 292.88782659173012 4851.4337181597948 312.70676481723785 45.062549620866776 48.2508245408535 30.736565336585045 484.60993917286396 595.63240517675877
leaf_count=2404 10466 143 8290 122 18321 282 619 2743 39635 6370 4461 9904 307 522 569 513 113 1517 302 193 577 107 1206 19718 1280 181 201 129 2039 2444
internal_value=-1.78764e-06 0.000608964 -0.000583029 -0.0105573 0.000368154 -0.00340044 -0.00436383 0.000952082 0.00188218 0.00416066 0.00322388 -0.00478943 -0.00116157 -0.00866379 -0.00746532 0.00360078 0.00634242 0.00252175 0.00699749 -0.00897151 -0.010072 0.00583606 -0.00821092 0.00387461 -0.00263305 0.00775788 -0.0168539 -0.0183875 -0.0168769 -0.0029505
internal_weight=33182.9 31367.4 23481.4 1815.43 17549.4 5931.99 5106.1 14931.2 10376.9 7886.01 6265.17 4954.89 4554.27 189.147 1223.14 6076.03 62.5663 825.884 444.272 1083.96 1011.14 72.8223 872.919 5950.92 381.612 1620.84 592.29 544.039 515.347 2618.23
internal_count=135678 128131 96110 7547 71740 24370 20989 61006 42378 32021 25470 20370 18628 778 5056 24692 256 3381 1819 4487 4187 300 3610 24179 1562 6551 2491 2290 2168 10734
is_linear=0
shrinkage=0.05


Tree=11
num_leaves=31
num_cat=0
split_feature=40 39 40 4 12 37 39 2 0 12 17 37 24 7 28 21 40 37 24 15 29 37 12 5 39 6 39 17 12 15
split_gain=77.5722 33.8051 21.1288 17.1569 15.3257 15.0484 14.5085 12.579 10.2789 9.76487 10.6687 13.9203 8.90215 9.91414 9.67074 8.81744 12.2726 9.59331 8.58202 8.39653 8.06246 7.67453 7.40529 7.33371 7.14748 6.52605 7.34491 7.25568 7.25441 6.4406
threshold=0.34676563739776617 0.46192643046379095 0.43275165557861334 0.63333335518836986 6.9000000953674325 6.5000000000000009 0.30812898278236395 0.55000001192092907 1.4499999880790713 4.4500000476837167 5.9000000953674325 15.500000000000002 13.775000095367433 3.5000000000000004 2.1000000238418584 4.0999999046325692 0.4402394443750382 13.000000000000002 18.899999618530277 0.44843699038028723 1.5500000119209292 9.5000000000000018 2.4500000476837163 0.90000000596046459 0.51875197887420665 6.5000000000000009 0.21016976237297061 4.5499999523162851 5.5499999523162851 0.36548800766468054
decision_type=2 2 2 2 2 2 2 2 2 2 2 2 2 2 2 2 2 2 2 2 2 2 2 2 2 2 2 2 2 2
left_child=7 2 3 4 22 29 18 21 19 12 15 -12 13 -3 -14 16 -11 -17 -7 -5 -8 -1 -2 -6 -15 26 -23 -28 -27 -4
right_child=1 9 5 8 23 6 20 -9 -10 10 11 -13 14 24 -16 17 -18 -19 -20 -21 -22 25 -24 -25 -26 28 27 -29 -30 -31
leaf_value=-0.0017376508268405902 -0.011679422952257134 -0.00086503384769851975 -0.0049537427749916842 -0.0027763390546129627 -0.011537512571096108 0.006388139069258586 -0.0031685744151741559 -0.01608206288198321 -0.021851132912024441 -0.012053376744443706 -0.002455244941241037 -0.036756688664262772 -0.0040434978547454472 0.0092634574811522631 0.0079219896615556219 0.0058582992304077207 0.017537525613687457 0.00093164878764997149 0.03452323581071378 -0.0083737480280191082 0.0022459014230336279 -0.038167879335084788 0.00027812574839870499 0.011953734882097604 0.019716627317440963 -0.0049075081329863074 0.0075453873533232506 -0.017113399013035237 -0.024427953442236569 -8.6743170476791652e-05
leaf_weight=439.43733662366867 129.62613415718079 164.06036633253098 800.65962135791779 3087.9524063467979 395.93369130790234 1551.9580862820148 793.37398071587086 590.01965199410915 81.274240344762802 179.75573100149632 286.43998849391937 31.355617851018906 295.37375919520855 572.90873058140278 384.27938331663609 2425.1929236799479 40.992918387055397 1690.6778297424316 26.161465868353844 865.61246977746487 4941.4972325116396 34.643733352422714 7831.5520908385515 33.61359366774559 243.50373989343643 489.62606005370617 33.247792541980743 172.28078839182854 52.11139115691185 4514.4471375197172
leaf_count=1804 530 667 3277 12654 1635 6318 3244 2491 335 734 1169 128 1198 2328 1559 9847 167 6883 106 3556 20154 145 32059 138 987 2031 139 717 220 18458
internal_value=-1.69687e-06 0.000578777 -0.000244417 -0.00170891 -0.000416915 0.00119465 0.00266665 -0.0100573 -0.00438798 0.00384789 0.00266303 -0.00612652 0.00714758 0.0102013 0.00268857 0.00331544 -0.006338 0.00384208 0.00691348 -0.0040118 0.00149165 -0.00710489 7.74057e-05 -0.00959443 0.0124523 -0.0100773 -0.0169928 -0.0129697 -0.00691416 -0.00082619
internal_weight=33179.6 31368.2 25053.7 12425.6 8390.73 12628.1 7312.99 1811.37 4034.84 6314.54 4654.42 317.796 1660.13 980.473 679.653 4336.62 220.749 4115.87 1578.12 3953.56 5734.87 1221.35 7961.18 429.547 816.412 781.91 240.172 205.529 541.737 5315.11
internal_count=135678 128131 102464 50907 34362 51557 29822 7547 16545 25667 18928 1297 6739 3982 2757 17631 901 16730 6424 16210 23398 5056 32589 1773 3315 3252 1001 856 2251 21735
is_linear=0
shrinkage=0.05


Tree=12
num_leaves=31
num_cat=0
split_feature=40 36 40 38 20 36 12 0 27 2 6 37 24 39 28 19 39 40 37 39 3 2 37 17 27 14 27 28 36 6
split_gain=70.6011 42.7972 17.7337 15.3491 11.786 11.8226 11.2979 11.1749 10.6871 10.6843 10.9738 10.102 9.86398 9.48059 10.6628 8.50951 8.35041 9.18109 8.00146 7.95351 7.78713 7.69107 7.33602 7.2925 7.19678 10.2895 7.58898 6.79281 6.62401 6.60374
threshold=0.36913608014583593 0.44737932085990911 0.43736350536346441 2.5000000000000004 7.7083332538604745 0.38529324531555181 5.5499999523162851 1.1000000238418581 20.899999618530277 0.36666667461395269 4.5000000000000009 19.500000000000004 9.7750000953674334 0.42611734569072729 2.1000000238418584 0.28368294239044195 0.29320058226585394 0.43908469378948217 15.500000000000002 0.30978700518608099 0.55000001192092907 0.70833334326744091 11.500000000000002 5.7750000953674325 12.09999990463257 0.41318839788436895 13.366666316986086 1.6333333253860476 0.46389967203140264 4.5000000000000009
decision_type=2 2 2 2 2 2 2 2 2 2 2 2 2 2 2 2 2 2 2 2 2 2 2 2 2 2 2 2 2 2
left_child=3 2 4 9 5 -2 24 11 -7 15 -11 18 -12 14 16 -1 17 -3 -4 -13 29 -15 -16 -8 -5 27 -27 -26 -14 -6
right_child=1 13 7 6 20 8 23 -9 -10 10 12 19 28 21 22 -17 -18 -19 -20 -21 -22 -23 -24 -25 25 26 -28 -29 -30 -31
leaf_value=-0.02281295233048344 -0.0060836790194579394 0.0039204654224233295 0.0017577796353274112 -0.023432005223682349 0.011357268731006322 -0.00099280031171070288 -0.021737429668021269 -0.0051268722313759629 0.011911486263626857 0.0076701713411199387 0.01352955787878622 0.015905778103589178 -0.024213328715168261 0.0066339674228782508 -0.0029009329725631673 0.0045784284538293672 0.0015798394202373005 0.01368983017518529 -0.0030745994123271073 0.0043195485802073764 -0.016471522812133096 -0.0042995444026740519 -0.023979270757523721 -0.00025834576788937583 -0.01418725207341489 -0.0081417023907688259 -0.024822156320421049 0.0066244813551985735 -0.0036855514146333264 -0.0089714967929690505
leaf_weight=27.982067123055458 1170.3026930838823 973.29961298406124 6586.6883657127619 73.85378198325634 57.621257498860359 11691.213838860393 268.35974384844303 627.10278581082821 160.43618576228619 71.107359334826469 25.345318093895912 181.1851990967989 139.50361363589764 2977.0290032327175 199.34194777905941 467.55489258468151 2984.0140407681465 324.64423552155495 979.5829516351223 860.54332773387432 214.35787606239319 165.8833970874548 51.647615730762482 49.109841778874397 47.211491450667381 1367.6848384290934 72.205443024635315 185.28863294422626 59.788358122110367 116.94030876457691
leaf_count=115 4810 3947 26900 308 237 47889 1137 2568 653 296 106 737 583 12047 816 1914 12132 1314 4009 3500 884 673 212 205 196 5695 300 767 247 481
internal_value=-2.25645e-06 0.000704927 -0.000387766 -0.00751698 -0.00154961 -0.0012904 -0.00978767 0.00129669 -0.000814025 -0.00155359 -0.0090624 0.00176864 -0.0144902 0.0039312 0.00245697 0.00289595 0.00304923 0.00640053 0.0011282 0.00638528 -0.0101138 0.00604658 -0.00749244 -0.0185155 -0.00816728 -0.00745106 -0.00902878 0.00220688 -0.0182769 -0.00206692
internal_weight=33176.8 30321.8 22646 2855 13410.9 13022 2063.71 9235.1 11851.7 791.282 295.745 8608 224.637 7675.86 4532.95 495.537 4281.96 1297.94 7566.27 1041.73 388.919 3142.91 250.99 317.47 1746.24 1672.39 1439.89 232.5 199.292 174.562
internal_count=135678 123809 92668 11869 54954 53352 8608 37714 48542 3261 1232 35146 936 31141 18421 2029 17393 5261 30909 4237 1602 12720 1028 1342 7266 6958 5995 963 830 718
is_linear=0
shrinkage=0.05


Tree=13
num_leaves=31
num_cat=0
split_feature=40 39 40 37 39 0 37 39 0 20 5 25 33 12 25 13 37 40 7 37 21 40 37 40 12 20 20 8 39 24
split_gain=64.8021 28.9992 17.4085 13.1993 12.7369 10.9038 11.9245 11.1958 10.4124 10.0555 9.08382 11.318 10.8384 8.84696 15.209 9.44839 12.6898 8.57509 8.42739 8.18631 7.83575 11.0636 8.33947 7.33583 7.22517 7.11653 6.4579 6.27234 8.72298 6.27999
threshold=0.34676563739776617 0.46192643046379095 0.43275165557861334 6.5000000000000009 0.21830710768699649 0.55000001192092907 11.500000000000002 0.2430064603686333 0.90000000596046459 7.7750000953674325 -0.22500000149011609 15.09999990463257 1.0000000180025095e-35 4.4500000476837167 17.550000190734867 5.9000000953674325 15.500000000000002 0.44008198380470281 3.5000000000000004 11.500000000000002 4.0999999046325692 0.4402394443750382 13.000000000000002 0.26533500850200659 2.1000000238418584 5.5499999523162851 4.5499999523162851 7.0999999046325692 0.39972163736820226 10.633333683013918
decision_type=2 2 2 2 2 2 2 2 2 2 2 2 2 2 2 2 2 2 2 2 2 2 2 2 2 2 2 2 2 2
left_child=5 2 9 27 -5 6 7 -1 -6 10 11 -2 -12 14 18 20 -17 26 19 -3 21 -15 -22 -7 -20 -9 -16 28 -4 -29
right_child=1 13 3 4 8 23 -8 25 -10 -11 12 -13 -14 15 17 16 -18 -19 24 -21 22 -23 -24 -25 -26 -27 -28 29 -30 -31
leaf_value=-0.0084630382020811894 -0.0046742119892304208 -0.0044748879686497154 0.00042775357710428771 0.014892167065276333 0.0028736228561343502 -0.019175155681645815 -0.011060974870380456 0.016529014239455377 -0.002586117528013084 -0.010270081888626763 0.00031303751304490913 0.0042425994711577228 -0.0043023446676641042 -0.011507390664229922 -0.014485108573145009 -0.0023464113044274551 -0.035182168600038088 -0.030093375915083376 -0.0078777814883661031 0.023495100463350033 0.0054139449034157966 0.016557544683733535 0.00082070683901839321 -0.0097191954712700507 0.010519953009291285 -0.0053459983657927236 0.0090372404048203962 -0.0043535451022280579 0.025689414643636662 -0.00017709615875439544
leaf_weight=121.10605446994305 2883.3643581271172 195.33372718095779 104.83246533572674 198.69431672990322 6105.5416399389505 275.96018813550472 274.89696277678013 139.61584746837616 1012.5764545053244 322.05333498120308 7274.4813454896212 401.42746676504612 1537.8143603205681 179.44984941184521 51.593089744448662 286.34364545345306 31.178537800908089 33.294540524482727 52.804554522037506 28.098951056599617 2427.5579467713833 41.09454171359539 1691.0067330002785 945.44746415317059 1239.238353818655 47.243422538042068 61.386899590492249 1165.3448468595743 50.305694371461868 3994.4962469488382
leaf_count=499 11826 794 428 805 24879 1166 1147 573 4138 1332 29794 1646 6309 734 209 1169 128 135 214 114 9847 167 6883 3967 5024 195 249 4772 205 16330
internal_value=-2.75072e-06 0.000526729 -0.000235901 0.00106977 0.0024479 -0.0092126 -0.00350867 0.00317992 0.00209294 -0.0015659 -0.00133045 -0.00357498 -0.00049034 0.00355345 0.00669245 0.00242552 -0.00584894 -0.00853546 0.00818805 -0.000669239 0.0030392 -0.00606384 0.00353543 -0.0119039 0.00973772 0.010868 -0.00155209 -0.000822921 0.009001 -0.00112651
internal_weight=33173.6 31369.3 25050.9 12631.8 7316.81 1804.27 582.862 307.965 7118.12 12419.1 12097.1 3284.79 8812.3 6318.38 1661.75 4656.63 317.522 146.275 1515.48 223.433 4339.11 220.544 4118.56 1221.41 1292.04 186.859 112.98 5314.98 155.138 5159.84
internal_count=135678 128131 102464 51557 29822 7547 2414 1267 29017 50907 49575 13472 36103 25667 6739 18928 1297 593 6146 908 17631 901 16730 5133 5238 768 458 21735 633 21102
is_linear=0
shrinkage=0.05


Tree=14
num_leaves=31
num_cat=0
split_feature=40 36 40 39 16 26 37 0 37 39 0 26 26 39 16 3 6 8 16 32 9 9 15 9 18 22 15 7 7 39
split_gain=58.6566 39.9101 19.8234 11.0492 10.7046 17.7838 11.2723 9.88488 10.7851 10.1053 8.24843 9.31784 12.9465 8.55599 17.5391 8.34419 8.17348 7.42425 14.7571 10.9775 6.91731 6.76648 6.68645 6.71695 9.92445 6.42508 6.23425 5.95156 7.001 5.74696
threshold=0.34676563739776617 0.44737932085990911 0.39875504374504095 0.51297584176063549 3.1000000238418584 18.550000190734867 20.500000000000004 0.55000001192092907 11.500000000000002 0.2430064603686333 0.63333335518836986 13.366666316986086 18.10000038146973 0.48287066817283636 4.5499999523162851 0.22500000149011615 8.5000000000000018 9.0999999046325701 2.7749999761581425 0.36666667461395269 8.0999999046325701 9.3666663169860858 0.40081967413425451 8.7750000953674334 0.52970588207244884 5.5499999523162851 0.32019416987895971 90.500000000000014 44.500000000000007 0.56482526659965526
decision_type=2 2 2 2 2 2 2 2 2 2 2 2 2 2 2 2 2 2 2 2 2 2 2 2 2 2 2 2 2 2
left_child=7 2 22 4 5 -4 -6 8 9 -1 11 13 16 15 -15 -3 -13 18 -5 -19 -9 -22 23 -2 -25 -11 -23 28 -24 -12
right_child=1 10 3 17 6 -7 -8 20 -10 25 29 12 -14 14 -16 -17 -18 19 -20 -21 21 26 27 24 -26 -27 -28 -29 -30 -31
leaf_value=-0.0080585106842243712 -0.015192281264195221 0.0080404721880047159 0.0024648466900460643 -0.015314989224299566 -0.00090713815743024737 0.025338165839432044 0.00448077862961714 -0.029398321870341228 -0.010536135533435827 0.015674302169524628 0.00030932464247363233 -0.0014451335832121543 0.013035133427020737 0.027459602488064585 0.0069432855295778646 0.0028574692068354256 -0.017675003724387149 0.0041691120517873678 0.021856960102132311 -0.018389577109034633 0.0055201157514246785 -0.022904020481055561 -0.0055371660866008511 0.00056986170693541121 0.03079159464924382 -0.005094174101607468 -0.010055521453824101 0.012339680013178958 -0.03045032277049535 0.016477059078609843
leaf_weight=120.93112930655479 59.364279791712761 1055.1255155056715 1194.0394042730331 31.056474849581718 16900.852280437946 90.00796115398407 1026.7752875834703 50.93276634812355 274.27679243683815 139.9673021286726 1941.6580758541822 483.52640624344349 133.540651679039 116.69007733464241 961.23200675845146 3057.2780365645885 91.61029464006424 1067.3878209143877 131.08652222156525 54.502437517046928 59.425622954964638 108.36496582627296 2324.5670516192913 497.96995785832405 26.87566252052784 47.199907392263412 999.49248619377613 43.115330308675766 27.142022848129272 54.725454926490784
leaf_count=499 245 4280 4872 126 69161 366 4189 218 1147 573 7892 1965 542 469 3877 12402 373 4348 532 222 250 459 9595 2053 111 195 4206 178 112 221
internal_value=-3.03763e-06 0.000500175 -0.000533237 1.96514e-05 -0.000279444 0.00412455 -0.000596694 -0.00877477 -0.00334019 0.00301183 0.00357526 0.00451607 -0.000829381 0.00525078 0.00923416 0.00419662 -0.00412591 0.00450762 0.014485 0.00302017 -0.0113426 -0.0104844 -0.00434295 0.000412443 0.00227589 0.0103063 -0.0113738 -0.00551282 -0.00586095 0.000781076
internal_weight=33170.7 31370.1 23474.7 20495.7 19211.7 1284.05 17927.6 1800.59 582.375 308.098 7895.39 5899 708.677 5190.33 1077.92 4112.4 575.137 1284.03 162.143 1121.89 1218.22 1167.28 2979.03 584.21 524.846 187.167 1107.86 2394.82 2351.71 1996.38
internal_count=135678 128131 96110 83816 78588 5238 73350 7547 2414 1267 32021 23908 2880 21028 4346 16682 2338 5228 658 4570 5133 4915 12294 2409 2164 768 4665 9885 9707 8113
is_linear=0
shrinkage=0.05


Tree=15
num_leaves=31
num_cat=0
split_feature=36 39 0 2 36 23 8 11 39 14 14 39 25 15 36 24 14 25 14 20 13 15 39 14 8 2 36 36 5 8
split_gain=40.5264 21.2932 15.0938 13.6399 12.279 14.7878 11.03 11.3465 10.3411 10.1062 9.93555 11.87 9.81561 12.1195 10.7985 9.76177 9.62728 9.62273 8.81081 8.67859 10.4824 10.3014 8.06154 7.6502 7.62877 7.53179 7.50038 7.08163 8.7729 7.36072
threshold=0.44259096682071691 0.38786673545837408 1.1000000238418581 0.70833334326744091 0.40858867764472967 5.0999999046325692 9.5500001907348651 7.0999999046325692 0.4539570957422257 0.47520491480827337 0.32919111847877508 0.51875197887420665 10.09999990463257 0.41565737128257757 0.38529324531555181 11.900000095367433 0.63693180680274974 13.366666316986086 0.43308457732200628 4.2916667461395273 3.5499999523162846 0.51363748311996471 0.23704227805137637 0.47402159869670873 10.550000190734865 -0.90000000596046437 0.38591447472572332 0.41144050657749182 1.0000000180025095e-35 16.10000038146973
decision_type=2 2 2 2 2 2 2 2 2 2 2 2 2 2 2 2 2 2 2 2 2 2 2 2 2 2 2 2 2 2
left_child=1 2 12 8 5 25 10 -8 19 -5 15 -12 13 18 22 -6 -9 -16 -1 21 -21 -2 -14 -10 -22 -3 -27 28 -4 -29
right_child=3 4 27 9 6 -7 7 16 23 -11 11 -13 14 -15 17 -17 -18 -19 -20 20 24 -23 -24 -25 -26 26 -28 29 -30 -31
leaf_value=-0.0054696154692233118 -0.0018167571122199183 -0.018823470957787886 -0.019135299601194866 -0.0026725124511715504 -0.015187994407318238 -0.0037811570543674414 -0.015433508875240571 0.00097847228128774373 0.0057451515568390059 -0.028430975937568017 0.0051507152412439503 0.020540804457444925 -0.025113500685000029 -0.0090417570059468291 8.8799129258762915e-05 0.0048121594717274504 -0.016919725139881655 -0.0035434841467289996 0.011777504760616168 -0.0092791331517202511 0.013368572914917729 -0.027467838386588873 -0.0055045932204572942 0.021175130838318502 0.0029103345333651044 0.022722211990122289 0.0045935693635693886 -0.0032117169460079164 -0.0039776465419688791 -0.017673575338294584
leaf_weight=154.08032377064228 353.31319655478001 26.4282186627388 244.2849809974432 491.93221180140972 108.63166296482086 2579.1210651248693 107.17788052558899 7419.629424020648 2211.8443623334169 39.755949109792709 1232.7857821434736 139.67952144145966 55.735503628849983 904.7092207968235 6690.6533509939909 131.86898268759251 73.777586311101913 2497.9955898821354 137.46657453477383 168.56858475506306 180.61049744486809 42.524677351117134 740.17506876587868 83.148802444338799 4916.1008102297783 67.677474781870842 364.50211973488331 737.73953822255135 165.75010892748833 99.70705209672451
leaf_count=634 1441 108 1021 2010 443 10583 439 30310 8927 164 5029 566 235 3716 27478 536 303 10265 565 690 737 175 3056 335 19974 277 1490 3059 690 422
internal_value=-2.81817e-06 -0.00102856 -0.00248686 0.00297628 0.000448935 -0.00230381 0.00135954 0.000558327 0.00349646 -0.00474472 0.00511414 0.00676281 -0.00190105 -0.00618347 -0.00138433 -0.00416937 0.00079445 -0.000896497 0.0026022 0.00234029 0.00288039 -0.00475951 -0.00696859 0.00633302 0.00329094 0.00593056 0.00758161 -0.00770587 -0.0131178 -0.00500134
internal_weight=33167.4 24679.6 12428.3 8487.8 12251.3 3037.73 9213.55 7600.58 7956.11 531.688 1612.97 1372.47 11180.8 1196.26 9984.56 240.501 7493.41 9188.65 291.547 5661.12 5265.28 395.838 795.911 2294.99 5096.71 458.608 432.18 1247.48 410.035 837.447
internal_count=135678 101225 51141 34453 50084 12458 37626 31052 32279 2174 6574 5595 45949 4915 41034 979 30613 37743 1199 23017 21401 1616 3291 9262 20711 1875 1767 5192 1711 3481
is_linear=0
shrinkage=0.05


Tree=16
num_leaves=31
num_cat=0
split_feature=36 39 0 25 12 0 36 24 8 12 15 24 24 39 12 36 13 36 24 15 14 22 39 24 7 8 5 13 36 21
split_gain=36.5696 19.2451 14.0425 11.3536 11.1117 9.83368 9.63382 9.55152 9.50072 9.22681 9.14723 8.58821 15.9342 9.23277 16.1971 8.53844 8.26808 8.18865 8.11799 7.73856 7.4243 7.41076 7.70051 6.89092 6.85012 7.05833 6.75797 6.52978 6.15085 12.6637
threshold=0.44259096682071691 0.38786673545837408 0.90000000596046459 10.09999990463257 4.0999999046325692 0.70833334326744091 0.38529324531555181 8.6333336830139178 13.449999809265138 4.7083332538604745 0.41565737128257757 13.366666316986086 18.10000038146973 0.48769463598728185 4.5499999523162851 0.46389967203140264 6.7750000953674325 0.38386821746826177 8.5500001907348651 0.50229358673095714 0.43308457732200628 3.8999999761581425 0.38971520960330969 11.900000095367433 14.500000000000002 15.550000190734865 1.0000000180025095e-35 7.3666667938232431 0.40544363856315618 5.0999999046325692
decision_type=2 2 2 2 2 2 2 2 2 2 2 2 2 2 2 2 2 2 2 2 2 2 2 2 2 2 2 2 2 2
left_child=1 2 3 10 21 11 17 -8 9 26 20 13 24 19 -15 -16 -12 -5 -11 -2 -1 -3 -23 -24 25 -13 -4 -10 29 -6
right_child=5 4 8 6 28 -7 7 -9 27 18 16 12 -14 14 15 -17 -18 -19 -20 -21 -22 22 23 -25 -26 -27 -28 -29 -30 -31
leaf_value=-0.0059220331565408525 0.0038354970488266209 0.0073622118049001765 -0.0095253090801676321 -0.0047839248496534641 0.010956995035865516 -3.4171159732444491e-05 0.0099237048350142108 -0.00074350780337328122 -0.014141568044308059 -0.021991015558534444 -0.011794340699824768 -0.0044885630503738371 0.013626242384185916 0.027040262737625356 0.011131162051702823 0.0013324102983371931 5.3569385131583141e-05 -0.023587629545400595 0.0021385169007804286 -0.011105464056647729 0.01087732371348404 0.027042287240515873 -0.0020953638582676504 0.0038107946696564234 -0.024311038184997757 0.019880743713687574 -0.0022403935546396344 0.0063476438196326829 0.00033992475844630789 -0.0036051994219536338
leaf_weight=141.38780134916306 4416.432953312993 773.21921800076962 797.30289342999458 631.05273541808128 157.57014685869217 2206.918038085103 213.28422828018665 8010.2469108551741 417.78252492845058 34.939768970012665 620.95295071601868 552.0381655395031 145.75595232844353 108.19648610055447 482.82917402684689 423.58941958844662 187.32516729831696 63.149761289358139 597.86576996743679 85.690272778272629 118.53243888914585 27.368663594126701 878.34979566931725 1114.4696341305971 39.666972398757935 29.136987134814262 549.00838597118855 39.953231334686279 7110.4144752770662 2190.324894964695
leaf_count=582 17909 3148 3310 2611 644 8989 876 32885 1756 144 2553 2245 591 434 1945 1707 771 261 2468 352 486 112 3585 4541 162 119 2272 166 29057 8997
internal_value=-3.35872e-06 -0.000978058 -0.00236494 -0.00153047 0.000426306 0.00282595 -0.00094296 -0.00046146 -0.00577021 -0.00424135 -0.00640092 0.00383418 -0.00109604 0.00452396 0.00884653 0.00659252 -0.00902428 -0.0065932 0.000701758 0.00354077 0.00166815 0.00319685 0.00158451 0.00119559 -0.00462521 -0.00315996 -0.00658089 -0.012279 -0.000389805 -0.00260878
internal_weight=33164.8 24674.5 12422.8 9985.93 12251.7 8490.25 8917.73 8223.53 2436.85 1979.12 1068.2 6283.34 766.598 5516.74 1014.62 906.419 808.278 694.202 632.806 4502.12 259.92 2793.41 2020.19 1992.82 620.842 581.175 1346.31 457.736 9458.31 2347.9
internal_count=135678 101225 51141 41025 50084 34453 36633 33761 10116 8194 4392 25464 3117 22347 4086 3652 3324 2872 2612 18261 1068 11386 8238 8126 2526 2364 5582 1922 38698 9641
is_linear=0
shrinkage=0.05


Tree=17
num_leaves=31
num_cat=0
split_feature=40 40 39 4 0 6 8 24 37 4 29 2 15 2 15 14 39 40 21 40 37 15 2 21 3 11 5 8 15 11
split_gain=50.2562 20.9171 13.171 11.694 11.6803 10.6927 10.538 10.0285 9.82801 9.80975 9.17689 8.92187 8.62177 7.93762 8.98586 7.90295 7.43792 7.17391 7.14269 6.90872 6.45195 6.54313 6.50095 6.15852 6.22892 6.15342 6.05617 7.12583 6.54395 5.83032
threshold=0.34676563739776617 0.43736350536346441 0.42449457943439489 0.77500000596046459 1.1000000238418581 3.5000000000000004 13.550000190734865 9.291666507720949 7.5000000000000009 1.0000000180025095e-35 1.1000000238418581 0.55000001192092907 0.51042118668556224 0.90000000596046459 0.43913836777210241 0.54011493921279918 0.31098192930221563 0.44073794782161718 5.7083332538604745 0.43819136917591101 13.000000000000002 0.46821977198123937 0.22500000149011615 6.0999999046325692 0.90000000596046459 12.900000095367433 -0.63333335518836964 14.708333492279055 0.34634424746036535 8.0999999046325701
decision_type=2 2 2 2 2 2 2 2 2 2 2 2 2 2 2 2 2 2 2 2 2 2 2 2 2 2 2 2 2 2
left_child=11 2 3 5 8 9 20 -7 26 -2 25 -1 16 14 -5 -15 -10 -14 -12 -6 21 -4 -22 24 29 -8 28 -28 -3 -13
right_child=1 4 6 13 19 7 10 -9 12 -11 18 23 17 15 -16 -17 -18 -19 -20 -21 22 -23 -24 -25 -26 -27 27 -29 -30 -31
leaf_value=-0.0056451919919794299 0.019295111751114979 -0.019021114200017297 0.0046099178899835962 -0.0017415976311180186 0.0096913909702061301 -0.0099230098439471223 0.024592491212647716 -0.00066663240359126643 0.008355702238743384 0.0027549041501084199 -0.0032617270438581578 -0.040641466357536182 -0.0021972045576711483 -0.018018315216389531 -0.0071561122292928886 0.0066998446482101244 0.003405856652624481 -0.029132242563348135 -0.016946493695346728 -0.0055611566074956782 0.0014981429201053878 -0.0011273008811328762 -0.005349454664914443 0.0011937797550000094 -0.00094052850836914446 -0.0062479438100761274 0.00093235729172316145 0.0097226518907629067 -0.0020002023877068761 -0.015586970555557795
leaf_weight=1213.5631264895201 98.532539829611778 67.3304213732481 2579.2029189765453 3124.4625674784184 80.321927338838577 302.87943358719349 37.073349803686142 7674.0218152552843 901.98247109353542 914.03204615414143 277.54770393669605 25.159626618027687 193.78958317637444 163.38657674193382 1023.4353702366352 37.411702454090118 5139.6500495225191 26.932860463857651 149.42919014394283 686.65378326177597 1393.8999022841454 606.43710263073444 458.73977136611938 62.308745533227921 71.586462423205376 24.655604526400566 4829.6422127336264 241.12475582957268 334.72558806836605 422.12326337397099
leaf_count=5056 404 275 10481 12812 329 1246 152 31432 3656 3750 1136 111 791 676 4213 155 20880 110 612 2811 5687 2475 1875 264 305 101 19718 987 1367 1811
internal_value=-3.15338e-06 0.000461902 -0.000588164 -0.0014395 0.00204824 -0.00040639 0.0014616 -0.00102363 0.0024404 0.00442393 -0.00551987 -0.00813647 0.00379402 -0.00356819 -0.00308638 -0.013269 0.0041515 -0.00582819 -0.00816595 -0.00391026 0.00214567 0.00350988 -0.00018788 -0.0132585 -0.0150399 0.0120725 0.000886124 0.00135895 -0.00499253 -0.0172266
internal_weight=33162 31367.3 18865.1 13338.2 12502.2 8989.47 5526.99 7976.9 11735.2 1012.56 488.706 1794.74 6262.35 4348.7 4147.9 200.798 6041.63 220.722 426.977 766.976 5038.28 3185.64 1852.64 581.178 518.869 61.729 5472.82 5070.77 402.056 447.283
internal_count=135678 128131 77207 54688 50924 36832 22519 32678 47784 4154 2001 7547 25437 17856 17025 831 24536 901 1748 3140 20518 12956 7562 2491 2227 253 22347 20705 1642 1922
is_linear=0
shrinkage=0.05


Tree=18
num_leaves=31
num_cat=0
split_feature=40 39 26 39 15 2 40 39 2 40 12 4 1 39 1 12 25 40 21 29 9 21 7 40 29 29 15 14 15 21
split_gain=45.6461 17.8846 12.8471 13.4075 12.5223 10.6788 10.5052 10.9159 9.38731 9.58764 8.41825 8.4175 8.60884 8.20052 7.41643 7.1878 13.3557 9.2288 10.4665 8.7989 8.17343 8.01794 7.40733 7.40325 7.15349 7.06835 11.0788 7.87134 6.81343 5.58552
threshold=0.36913608014583593 0.46192643046379095 11.900000095367433 0.28570623695850378 0.36548800766468054 0.55000001192092907 0.41939464211463934 0.34326425194740301 -1.3666666746139524 0.43999412655830389 3.1000000238418584 0.45000000298023229 0.22500000149011615 0.30090339481830602 1.3666666746139529 4.4500000476837167 17.550000190734867 0.44063986837863928 4.0999999046325692 3.1000000238418584 9.9000000953674334 5.4500000476837167 3.5000000000000004 0.44008198380470281 1.8999999761581423 2.5499999523162846 0.3257120549678803 0.43308457732200628 0.31843157112598425 6.3666667938232431
decision_type=2 2 2 2 2 2 2 2 2 2 2 2 2 2 2 2 2 2 2 2 2 2 2 2 2 2 2 2 2 2
left_child=5 2 4 8 25 -1 7 -5 -4 -10 -8 14 -13 -7 -6 16 22 18 20 23 -17 -20 24 -18 -3 27 -27 -2 -24 -19
right_child=1 15 3 6 11 13 10 -9 9 -11 -12 12 -14 -15 -16 17 19 29 21 -21 -22 -23 28 -25 -26 26 -28 -29 -30 -31
leaf_value=-0.0040750986105289001 -0.011868846132866366 -0.0073031699854924637 -0.023576165615200956 -0.0057318068030534665 0.00193512064126589 -0.015245890709192772 0.0066592146519424966 -0.00036768638600769634 0.002495481443076829 0.0099083643470087857 0.00039477942162493331 0.0028045210499301741 -0.0049388382249851608 -0.0050268729473046357 -0.01413508987730704 -1.2989309401845704e-05 -0.0068782730304698938 0.0070032067885046692 0.0026133341704685166 0.014940734953442232 -0.019364637087213525 -0.0041870706087596887 0.014810223377383712 -0.036298243429828424 0.011657302429965941 0.021564870458428066 -0.015436285157620728 -0.0010404045990603237 0.006401279975456863 0.029731023071276626
leaf_weight=2010.017191529274 615.0038653165102 152.62815029919147 29.693684726953506 1445.4889231622219 1831.4324973672628 467.77956591546535 562.88717418909073 2784.1505058556795 2775.1717261373997 520.87314349412918 10961.737844884396 451.38832181692123 1667.696807384491 357.83622013032436 72.461782529950142 117.06901706755161 86.900465250015259 446.47216483950615 3445.6680067926645 28.892120748758316 104.64266426861286 491.46167461574078 335.11815266311169 28.52469365298748 71.003792613744736 47.522002607584 31.702627718448639 238.29336884617805 951.80888067185879 28.01329730451107
leaf_count=8350 2525 620 121 5933 7513 2007 2292 11418 11324 2117 44751 1855 6847 1512 297 479 352 1810 13979 117 428 2004 1355 116 288 195 130 978 3851 114
internal_value=-3.616e-06 0.000563064 -5.70809e-05 0.000531013 -0.00232574 -0.00606852 -7.65533e-05 -0.00220864 0.00341493 0.00367982 0.000704019 -0.0011067 -0.00327654 -0.0108698 0.00129618 0.00293669 0.00577123 0.00191684 0.00115412 -0.00859723 -0.00934973 0.00175642 0.00717006 -0.0148561 -0.0011224 -0.00754443 0.00643514 -0.00888361 0.00862996 0.00851667
internal_weight=33159.3 30323.7 24035.5 19080 4955.5 2835.63 15754.3 4229.64 3325.74 3296.04 11524.6 4022.98 2119.09 825.616 1903.89 6288.2 1654.88 4633.33 4158.84 144.317 221.712 3937.13 1510.56 115.425 223.632 932.522 79.2246 853.297 1286.93 474.485
internal_count=135678 123809 98296 77956 20340 11869 64394 17351 13562 13441 47043 16512 8702 3519 7810 25513 6699 18814 16890 585 907 15983 6114 468 908 3828 325 3503 5206 1924
is_linear=0
shrinkage=0.05


Tree=19
num_leaves=31
num_cat=0
split_feature=40 36 40 36 37 13 23 36 23 0 37 2 40 24 24 10 0 3 40 13 30 13 15 1 23 36 36 7 36 30
split_gain=41.8288 27.031 14.8386 9.10188 12.4801 12.4493 8.73872 8.41253 8.17575 7.61413 9.65783 7.35405 6.83181 6.5395 11.5646 8.01007 6.94054 7.02239 6.4212 6.30672 5.71918 6.40096 5.67683 8.13612 6.16886 5.64161 5.44835 4.99519 6.55688 4.87692
threshold=0.34676563739776617 0.44737932085990911 0.39875504374504095 0.40453068912029272 7.5000000000000009 6.0999999046325692 5.0999999046325692 0.42803224921226507 3.1000000238418584 0.55000001192092907 11.500000000000002 -1.1000000238418577 0.44075858592987066 13.550000190734865 18.10000038146973 15.550000190734865 0.70833334326744091 0.22500000149011615 0.26533500850200659 5.0999999046325692 2.8999999761581425 3.7749999761581425 0.40081967413425451 0.63333335518836986 5.7750000953674325 0.47454065084457403 0.46427945792675024 5.5000000000000009 0.42845103144645696 1.2250000238418581
decision_type=2 2 2 2 2 2 2 2 2 2 2 2 2 2 2 2 2 2 2 2 2 2 2 2 2 2 2 2 2 2
left_child=9 2 11 6 7 -6 8 -5 -4 10 27 -2 -8 16 15 19 17 -3 -11 -15 21 -20 24 -24 -13 26 -16 28 -1 -18
right_child=1 13 3 4 5 -7 12 -9 -10 18 -12 22 -14 14 25 -17 29 -19 20 -21 -22 -23 23 -25 -26 -27 -28 -29 -30 -31
leaf_value=0.032619763897627767 0.015115116600994315 0.0074916823956847206 -0.014743279839512596 0.00021344153784010565 0.0032210212020212445 -0.0078559771554364676 -0.0035011138766871497 -0.0035660615242810267 0.0066377302207226256 -0.01654227563759408 -0.0094968310881025191 0.004452625521582626 0.0078078354850472723 -0.0076409190319723236 0.00042529571507801835 0.015708111515819811 -0.011602243705912127 0.0032853331234320876 -0.019735781651805992 0.0035211293795114544 0.014643993199229231 -0.0067121711512192241 -0.0032137210809116881 -0.0097000702201883102 -0.0061619398203023451 -0.0089641207255308671 0.021590748303022617 8.0794774658063742e-05 0 0.0013069499839717521
leaf_weight=28.399508699774742 48.411606118083 1358.8290155977011 47.665938556194305 9894.6323063224554 4774.9575975090265 264.80818858742714 3237.4403470307589 1725.9610574841499 409.74379090964794 271.94654774665833 272.97855363786221 355.37721687555313 136.15438272058964 543.52581198513508 48.116042599081993 47.261145785450935 74.248240634799004 3867.8395885527134 109.11183753609657 160.02967041730881 25.359348937869072 801.48895388841629 1653.1351253539324 695.74328288435936 219.42663760483265 27.640745788812637 94.374926388263702 248.11575223505497 31.172982588410378 1682.6168327182531
leaf_count=117 199 5494 195 40486 19466 1082 13296 7056 1677 1166 1147 1467 558 2211 195 193 303 15648 468 653 107 3392 6842 2879 907 112 382 1022 128 6830
internal_value=-3.73119e-06 0.000419779 -0.000431257 4.6543e-05 0.000553102 0.00263115 -0.00214901 -0.000346279 0.00430075 -0.00743737 -0.00266032 -0.00373172 -0.00303294 0.00294861 -0.000988759 -0.00368482 0.00347156 0.00438613 -0.00970495 -0.0050638 -0.00766065 -0.00833994 -0.00406245 -0.00515224 0.000349944 0.0106687 0.0147215 0.00334641 0.0160971 0.000734598
internal_weight=33156.5 31367.9 23463.5 20491.4 16660.4 5039.77 3831 11620.6 457.41 1788.57 580.667 2972.09 3373.59 7904.48 920.948 750.817 6983.53 5226.67 1207.91 703.555 935.96 910.601 2923.68 2348.88 574.804 170.132 142.491 307.688 59.5725 1756.87
internal_count=135678 128131 96110 83816 68090 20548 15726 47542 1872 7547 2414 12294 13854 32021 3746 3057 28275 21142 5133 2864 3967 3860 12095 9721 2374 689 577 1267 245 7133
is_linear=0
shrinkage=0.05


Tree=20
num_leaves=31
num_cat=0
split_feature=40 36 37 24 8 13 14 7 39 40 8 8 40 36 9 4 39 20 13 3 31 39 2 14 36 8 6 37 14 24
split_gain=37.8272 24.4926 19.3198 14.8576 16.0974 14.0824 11.875 10.8773 10.6186 9.79153 9.65576 14.0889 9.04275 8.23333 9.99017 7.76296 7.65724 7.62566 8.58987 8.15845 7.25946 12.899 6.99384 6.77954 6.70106 6.33203 7.00042 8.32221 6.75658 6.08843
threshold=0.34676563739776617 0.41520588099956518 7.5000000000000009 18.708333015441898 12.09999990463257 6.0999999046325692 0.313496083021164 2.5000000000000004 0.51875197887420665 0.4006257057189942 9.0999999046325701 10.366666316986086 0.43736350536346441 0.42803224921226507 10.900000095367433 0.45000000298023229 0.51875197887420665 7.7083332538604745 5.3666667938232431 0.90000000596046459 1.8999999761581423 0.29490414261817938 0.55000001192092907 0.50242719054222118 0.40230366587638861 13.900000095367433 6.5000000000000009 13.000000000000002 0.32373654842376715 10.550000190734865
decision_type=2 2 2 2 2 2 2 2 2 2 2 2 2 2 2 2 2 2 2 2 2 2 2 2 2 2 2 2 2 2
left_child=22 7 8 4 12 16 -6 23 13 20 -10 -12 -4 15 -15 -3 -5 19 -19 -11 -9 -22 24 -2 -1 26 27 -26 -27 -30
right_child=1 2 3 5 6 -7 -8 9 10 17 11 -13 -14 14 -16 -17 -18 18 -20 -21 21 -23 -24 -25 25 28 -28 -29 29 -31
leaf_value=-0.014528996888295731 0.026625607524848452 0.0018501983772843827 0.0016528928817068579 0.015483924728536318 0.0039390957731426941 -0.012635797826142612 -0.0059591963440714475 -0.007525668587961107 0.022057316047799931 -0.0001971082224381375 -0.016124817440701905 0.0080700834697092667 0.0045915999736734093 -0.010647915047819319 -0.0018687524307436595 -0.0015435638031586784 -0.0056835889831172472 -0.020054245286519667 0.0015364798363355461 -0.0042618973510855241 0.026044731110973537 -0.004919435978193702 -0.011642913560545361 -0.00046478731600811137 -0.00098192147551046691 0.0044205681157815351 0.0012774746372435316 -0.018858524883048958 0.0034889784768442605 -0.023405091427411904
leaf_weight=155.99339970946312 52.228341296315193 3167.0492504835129 6575.8986060917377 436.84601718187332 437.02512115240097 55.325037360191345 962.69781343638897 1097.3085141777992 84.361081257462502 5943.8993418216705 72.097933232784271 311.06265115737915 4396.7326695621014 397.18876478075981 1794.4204343259335 3595.3751849234104 44.482652932405472 110.16498179733753 74.280171260237694 1561.1315028518438 44.595851764082909 116.78559695184231 575.71026918292046 37.015382394194603 164.98819489777088 42.074959397315979 612.19631406664848 109.36673894524574 23.898624777793884 101.05485220253468
leaf_count=667 214 12964 26753 1776 1784 226 3947 4553 341 24358 293 1266 17795 1628 7333 14736 180 454 306 6403 185 484 2491 152 680 175 2541 461 100 432
internal_value=-3.49523e-06 0.000398859 0.00128831 0.00254487 0.00218802 0.0106869 -0.00284968 -0.00179593 -0.000430886 -0.00197314 0.00689323 0.00339242 0.00283333 -0.00081755 -0.00347947 4.22197e-05 0.0134606 -0.00129898 -0.0113019 -0.00104687 -0.0060632 0.00369821 -0.00707951 0.0153515 -0.00487124 -0.0033928 -0.00166514 -0.00828348 -0.0122868 -0.0180905
internal_weight=33153.3 31368 22330.6 12909 12372.4 536.654 1399.72 9037.41 9421.56 8948.17 467.522 383.161 10972.6 8954.03 2191.61 6762.42 481.329 7689.48 184.445 7505.03 1258.69 161.381 1785.28 89.2437 1209.57 1053.58 886.551 274.355 167.028 124.953
internal_count=135678 128131 91022 52461 50279 2182 5731 37109 38561 36743 1900 1559 44548 36661 8961 27700 1956 31521 760 30761 5222 669 7547 366 5056 4389 3682 1141 707 532
is_linear=0
shrinkage=0.05


Tree=21
num_leaves=31
num_cat=0
split_feature=36 39 2 4 0 5 39 36 14 1 8 3 12 2 36 20 26 26 39 39 28 36 25 29 26 15 39 8 29 39
split_gain=25.2459 13.8035 10.277 9.66594 9.39688 9.32049 9.0595 11.9315 8.92467 8.3156 10.9629 7.78267 7.63417 8.73843 7.65768 7.46915 8.84507 7.95151 7.43336 7.28671 8.50627 6.69906 6.56325 7.31939 8.08627 6.48447 6.20048 6.14931 5.93843 6.01795
threshold=0.44259096682071691 0.42449457943439489 0.70833334326744091 0.77500000596046459 1.4499999880790713 -0.90000000596046437 0.2430064603686333 0.40713584423065191 0.47520491480827337 0.77500000596046459 6.6333332061767587 0.55000001192092907 7.2249999046325692 0.22500000149011615 0.40858867764472967 5.9000000953674325 16.550000190734867 22.22500038146973 0.42611734569072729 0.27325232326984411 2.1000000238418584 0.47096429765224462 19.550000190734867 2.1000000238418584 15.09999990463257 0.58195385336875927 0.26982825994491583 13.900000095367433 1.5500000119209292 0.48456262052059179
decision_type=2 2 2 2 2 2 2 2 2 2 2 2 2 2 2 2 2 2 2 2 2 2 2 2 2 2 2 2 2 2
left_child=1 3 18 6 15 28 7 -1 -4 10 -8 -11 14 -14 27 17 -17 -5 19 26 -21 -22 23 -20 -25 -9 -2 -7 -3 -30
right_child=2 5 8 4 -6 12 9 25 -10 11 -12 -13 13 -15 -16 16 -18 -19 22 20 21 -23 -24 24 -26 -27 -28 -29 29 -31
leaf_value=-0.019094539083027842 0.0039316075086576353 0.0056032070182272763 -0.0024157404880315579 -0.0023023733412034265 -0.01681374474638361 -0.0018115552193036539 0.016460166229429196 -0.0042663848339104518 -0.026710776960869077 0.00057211498388802723 0.00050356399867536436 -0.0042493883161274079 0.00039291265635892439 -0.020746623055714335 0.0023597602304286178 -0.0085643748877042049 0.0061393349110631041 0.023326577095262886 0.0042130243889518587 0.001078744532733486 -0.013216075161202507 0.0060218829361288013 -0.018413743505182077 0.019147309943491203 0 0.010909912201634571 0.019446803412357369 0.019334758962370305 -0.01618680083182986 0.00054277861079964659
leaf_weight=131.53893613815308 1255.2259915620089 63.917701154947281 491.24629567563534 4467.9438568353653 125.10407121479511 1743.6122195273638 107.68126687407494 918.09710788726807 39.442991197109222 1409.1208012700081 6284.10746486485 2028.3926931470633 112.07273192703724 81.639850318431854 5789.3760802000761 897.89240519702435 111.92533917725086 28.320250779390335 2743.9042053967714 3374.9954939782619 184.70159980654716 56.406655117869377 27.907916307449341 173.71399009227753 81.920326501131058 73.523939609527588 67.177885055541992 32.917181774973869 172.58080370724201 73.387849077582359
leaf_count=553 5097 261 2010 18404 528 7151 440 3807 164 5784 25850 8332 460 336 23584 3714 462 116 11070 13707 759 230 113 700 331 303 272 135 706 299
internal_value=-3.69902e-06 -0.000814516 0.0023456 -0.00164028 -0.00332474 0.000879395 -0.000771482 -0.00502275 -0.00436189 -0.000282239 0.000781357 -0.00226648 0.00122251 -0.00850954 0.00147717 -0.00300773 -0.00690104 -0.00212509 0.00279657 0.00159202 0.000422092 -0.00860005 0.00475088 0.00498686 0.0130988 -0.00309628 0.00476683 -0.00138438 -0.00758493 -0.0111304
internal_weight=33149.8 24653.2 8496.64 16583.6 5631.19 8069.5 10952.5 1123.16 530.689 9829.3 6391.79 3437.51 7759.62 193.713 7565.91 5506.08 1009.82 4496.26 7965.95 4938.51 3616.1 241.108 3027.45 2999.54 255.634 991.621 1322.4 1776.53 309.886 245.969
internal_count=135678 101225 34453 68293 23224 32932 45069 4663 2174 40406 26290 14116 31666 796 30870 22696 4176 18520 32279 20065 14696 989 12214 12101 1031 4110 5369 7286 1266 1005
is_linear=0
shrinkage=0.05


Tree=22
num_leaves=31
num_cat=0
split_feature=36 0 39 2 39 18 20 13 18 1 4 39 39 8 3 36 39 18 20 19 13 8 5 12 0 11 18 25 24 21
split_gain=22.7823 13.0092 9.89555 9.30146 8.63136 9.71422 8.54363 8.34471 8.1481 7.84126 13.1982 12.3694 19.6086 8.27905 7.77626 7.76625 6.78077 7.07442 6.91547 9.02684 8.61341 7.55974 6.51042 6.2297 6.72626 6.14062 6.44011 6.06989 6.01678 5.77995
threshold=0.44259096682071691 0.90000000596046459 0.42449457943439489 0.70833334326744091 0.23704227805137637 0.43649168312549597 8.2249999046325701 3.5499999523162846 0.47520491480827337 0.63333335518836986 1.0000000180025095e-35 0.25576961040496832 0.27170711755752569 11.22499990463257 0.77500000596046459 0.40091641247272497 0.4539570957422257 0.47402159869670873 4.2916667461395273 0.51530769467353832 3.5499999523162846 10.550000190734865 -0.90000000596046437 6.0999999046325692 1.1000000238418581 17.899999618530277 0.3788676261901856 10.900000095367433 17.899999618530277 6.0999999046325692
decision_type=2 2 2 2 2 2 2 2 2 2 2 2 2 2 2 2 2 2 2 2 2 2 2 2 2 2 2 2 2 2
left_child=1 2 9 16 14 -6 7 -7 -5 11 15 27 -13 -12 29 -11 18 -18 19 28 -20 -22 -4 24 -16 -24 -27 -1 -2 -3
right_child=3 4 22 8 5 6 -8 -9 -10 10 13 12 -14 -15 23 -17 17 -19 20 -21 21 -23 25 -25 -26 26 -28 -29 -30 -31
leaf_value=-0.014914027345235751 -0.0046473231960673248 -0.019902272759960621 -0.0063025825353239598 -0.0022962468013476745 -0.0043853806603830602 0.011344749744966777 -0.020648243026417046 -8.4147265547896219e-05 -0.025567648898339582 -0.01072616636732294 -0.0021419913581721384 0.012293432460483384 5.8002828655933163e-05 -0.0072336616049237558 -0.0062172198532294571 0.010498479672542846 0.004388520924919888 0.0191823471299198 -0.008831836863379126 -0.026153537158831359 0.012585978000182921 0.0021957809610001953 0.0018143628193714656 -0.01974316311383505 0.024418630720201024 -2.2013191922732909e-05 -0.027900619002681478 -0.0035967620836861308 0.013539331441831132 0.0029199058795326069
leaf_weight=135.98917362093925 302.87221066653728 182.32564413547516 266.1386509090662 491.07817563414574 2698.299994379282 181.23266683518887 43.29750394821167 1212.1273832768202 39.24080702662468 48.390194177627563 3521.0371447950602 341.58780610561371 7069.3339858055115 1042.4090120643377 33.650985017418861 270.72099217772484 2216.5976433008909 83.323679879307747 168.25196129083633 41.54199193418026 180.92879216372967 4923.3170620650053 6457.8636776208878 24.406282424926758 32.80601854622364 54.194684132933617 33.463866159319878 969.74764403700829 51.081033438444138 29.916653230786324
leaf_count=562 1237 782 1088 2010 11149 750 181 4996 164 200 14457 1405 29039 4291 141 1110 8927 335 690 172 737 19974 26335 105 139 221 137 4010 207 127
internal_value=-3.42867e-06 -0.000773875 -0.000234146 0.00222795 -0.00322495 -0.0026168 0.00068901 0.00139861 -0.00415476 -0.00102398 -0.00262123 -0.000104956 0.000628501 -0.0033132 -0.0113678 0.00715535 0.00265684 0.00495155 0.00171988 -0.00462128 0.00220184 0.00257376 0.00131572 0.000612963 0.00881232 0.00163113 -0.0113285 -0.0050356 -0.00189114 -0.0165715
internal_weight=33147.2 24648.9 20210.9 8498.23 4438.06 4134.96 1436.66 1393.36 530.319 13399.2 4882.56 8516.66 7410.92 4563.45 303.106 319.111 7967.91 2299.92 5667.99 395.495 5272.5 5104.25 6811.66 90.8633 66.457 6545.52 87.6586 1105.74 353.953 212.242
internal_count=135678 101225 82855 34453 18370 17076 5927 5746 2174 55074 20058 35016 30444 18748 1294 1310 32279 9262 23017 1616 21401 20711 27781 385 280 26693 358 4572 1444 909
is_linear=0
shrinkage=0.05


Tree=23
num_leaves=31
num_cat=0
split_feature=40 36 24 29 20 5 7 24 28 0 16 13 37 40 21 37 9 8 29 39 0 21 40 20 14 5 14 15 40 36
split_gain=32.293 19.6223 15.509 14.4401 13.3079 9.82025 9.75204 9.42518 11.0158 11.0885 10.3857 8.73097 9.64618 8.60187 8.03655 6.85817 9.74753 8.35251 6.55677 11.7009 6.37852 7.27551 11.0663 7.53335 6.72976 6.32741 6.10104 6.07114 5.76481 8.94422
threshold=0.34676563739776617 0.41520588099956518 11.775000095367433 2.7749999761581425 5.9000000953674325 -0.22500000149011609 2.5000000000000004 18.708333015441898 1.8999999761581423 0.90000000596046459 4.9000000953674325 6.0999999046325692 7.5000000000000009 0.4006257057189942 6.2916667461395273 16.500000000000004 12.775000095367433 11.366666316986086 1.8999999761581423 0.29490414261817938 1.4499999880790713 5.9000000953674325 0.33851596713066107 5.3666667938232431 0.313496083021164 1.1000000238418581 0.50242719054222118 0.53208649158477794 0.43904511630535131 0.4173052459955216
decision_type=2 2 2 2 2 2 2 2 2 2 2 2 2 2 2 2 2 2 2 2 2 2 2 2 2 2 2 2 2 2
left_child=20 6 3 28 5 -5 26 8 9 -4 -10 12 -9 18 -13 17 -17 -15 25 -20 21 23 -23 -1 -25 -8 -2 -26 29 -3
right_child=1 2 7 4 -6 -7 13 11 10 -11 -12 14 -14 15 -16 16 -18 -19 19 -21 -22 22 -24 24 27 -27 -28 -29 -30 -31
leaf_value=-0.0052294154360654514 0.025284471067054917 0.0034738385763294789 0.0026844435172179229 0.00054395212622211457 -0.0073281998509363306 0.035599276776587162 -0.0077640203999606921 -0.0085893908411335766 0.00080871615932032171 -0.0012857740614836766 -0.0052915128953969076 -0.014132004346660031 0.012660971687504827 0.00086302310100976022 0.012845674690479959 -0.0032541571234665119 -0.032868124145142071 -0.0034817083977680182 0.024897465622818589 -0.0045537255128116558 -0.01922910018080029 0.008098916471903703 -0.022282486472617519 0.0054840498363505777 -0.020651893222591346 0.01170653282985186 -0.00036645410525025794 0 0.00067263248476981006 -0.0048426576882319152
leaf_weight=1187.9638349562883 52.424354210495949 373.48723992705345 12577.469596862793 31.022057697176933 46.88500189781189 63.144350171089172 1054.2423297762871 57.175880268216133 2229.7668121010065 2034.146804869175 1010.1035867333412 76.203611984848976 482.18585558235645 4253.8661342412233 40.051131784915924 1913.4120356738567 26.445106789469719 1491.4387703984976 44.768072962760925 116.6145367026329 93.994304582476616 173.67529816925526 33.937121272087097 34.969287633895874 210.47825734317303 40.722227245569229 37.000844582915306 44.895621180534363 1099.6165530979633 2212.5686964988708
leaf_count=5016 214 1532 51118 127 193 258 4384 234 9088 8316 4145 312 1956 17429 164 7858 109 6125 185 484 412 733 142 146 908 169 152 190 4495 9084
internal_value=-3.85651e-06 0.000367352 0.00116324 -0.0017304 0.0138329 0.0245622 -0.00159796 0.00176303 0.00154453 0.00212992 -0.00108755 0.00765185 0.0103387 -0.00176621 -0.0045664 -0.00113433 -0.00370418 -0.000261306 -0.00560361 0.00366788 -0.0065522 -0.00580868 0.00284817 -0.00704353 -0.0142941 -0.00699709 0.0146218 -0.0171211 -0.00233997 -0.00363014
internal_weight=33144.7 31364.8 22333.8 3826.72 141.051 94.1664 9030.93 18507.1 17851.5 14611.6 3239.87 655.616 539.362 8941.51 116.255 7685.16 1939.86 5745.3 1256.35 161.383 1779.91 1685.92 207.612 1478.31 290.343 1094.96 89.4252 255.374 3685.67 2586.06
internal_count=135678 128131 91022 15689 578 385 37109 75333 72667 59434 13233 2666 2190 36743 476 31521 7967 23554 5222 669 7547 7135 875 6260 1244 4553 366 1098 15111 10616
is_linear=0
shrinkage=0.05


Tree=24
num_leaves=31
num_cat=0
split_feature=40 2 36 12 36 8 8 15 39 0 13 38 29 12 1 7 21 29 12 40 21 7 20 36 25 26 20 12 15 9
split_gain=29.683 20.5192 12.7279 12.3174 11.2785 11.26 10.5317 9.87983 11.7052 11.1987 9.02893 8.58015 8.09738 7.49006 7.87549 10.2819 9.23059 7.41295 7.89707 8.36273 7.14582 7.74891 7.60672 7.142 6.92595 6.90006 6.75973 14.014 6.73336 6.375
threshold=0.41939464211463934 0.55000001192092907 0.4229914546012879 6.5499999523162851 0.45367927849292761 6.4500000476837167 13.366666316986086 0.51042118668556224 0.37085030972957617 0.55000001192092907 6.0999999046325692 6.0000000000000009 1.6333333253860476 3.1000000238418584 0.55000001192092907 49.500000000000007 5.2916667461395273 3.5499999523162846 2.1000000238418584 0.43736350536346441 6.0999999046325692 7.5000000000000009 6.9000000953674325 0.47731949388980871 14.366666316986086 14.900000095367433 3.7749999761581425 3.8999999761581425 0.27042925357818609 8.0999999046325701
decision_type=2 2 2 2 2 2 2 2 2 2 2 2 2 2 2 2 2 2 2 2 2 2 2 2 2 2 2 2 2 2
left_child=1 2 7 5 13 -4 20 8 9 -1 -10 -7 -5 17 26 16 -16 18 19 -2 22 -22 23 -3 -20 -8 27 -15 -28 -9
right_child=4 6 3 12 -6 11 25 29 10 -11 -12 -13 -14 14 15 -17 -18 -19 24 -21 21 -23 -24 -25 -26 -27 28 -29 -30 -31
leaf_value=-0.0029471853278971571 -0.020584967681356401 -0.0045984321469767289 -0.029303293298535645 -0.00094110851191612404 0.0028626272673540508 0.0030375656576404645 -0.016663149401109158 -0.01072036729836922 0.0003799056596547239 -0.011029173802461566 -0.02031570322143883 -0.0018538484088648109 -0.022881178566839938 0.019292908397770467 -0.00016912535887726932 0.0090175543012632597 -0.0036848443487329952 0.029249954259545404 0.0025431253177787038 0.0029254642996791947 -0.0006632961660701462 0.026264456594659643 -0.029009128205988357 -0.026557910738069446 0.011870211214258962 -0.0018483313009853568 -0.010172246004546762 0.00097057930610786828 0.0011473721394026565 0.0048571696096379076
leaf_weight=838.408557087183 63.996755346655846 1372.443808093667 27.903122246265411 84.638353422284126 5853.6039393097162 2775.3299943357706 361.59307977557182 73.468889936804771 1080.3150808960199 902.56231269240379 53.321126878261566 1315.6292203962803 87.164980471134186 155.70840290188789 6650.2932710945606 252.48800177872181 2602.8905138224363 26.911760702729225 774.24965953826904 84.093313932418823 103.30714404582977 33.233771860599518 33.104480937123299 36.742086350917816 271.92773069441319 105.97171139717102 131.86396460235119 318.59465299546719 6193.733146995306 476.07410648465157
leaf_count=3476 261 5741 114 352 23657 11348 1545 304 4455 3763 220 5410 366 634 27192 1032 10657 109 3155 342 428 138 139 152 1104 447 539 1302 25328 1968
internal_value=-3.87526e-06 -0.0023202 -0.00113485 0.000674556 0.000962229 0.00122969 -0.00677124 -0.00340852 -0.00458565 -0.00715928 -0.000605572 0.00145827 -0.0123515 0.000325852 4.12141e-05 -0.000886529 -0.00116137 0.0040997 0.00346411 -0.00720686 -0.00478356 0.00599495 -0.00582815 -0.00522553 0.00500934 -0.0133808 0.00134167 0.00709384 0.000904311 0.00269795
internal_weight=33141.6 9761.21 7714.82 4290.67 23380.4 4118.86 2046.4 3424.15 2874.61 1740.97 1133.64 4090.96 171.803 17526.8 16305.6 9505.67 9253.18 1221.18 1194.27 148.09 1578.83 136.541 1442.29 1409.19 1046.18 467.565 6799.9 474.303 6325.6 549.543
internal_count=135678 40366 31776 17590 95312 16872 8590 14186 11914 7239 4675 16758 718 71655 66684 38881 37849 4971 4862 603 6598 566 6032 5893 4259 1992 27803 1936 25867 2272
is_linear=0
shrinkage=0.05


Tree=25
num_leaves=31
num_cat=0
split_feature=40 36 37 8 24 15 39 0 0 21 3 14 40 21 9 9 40 8 0 39 6 17 12 3 36 37 17 39 25 36
split_gain=27.5153 16.3324 15.3808 13.3176 12.9964 10.8919 10.5935 10.2962 10.211 9.85228 9.38764 12.453 9.14195 8.89472 8.74275 9.06292 7.90166 7.8079 7.71007 7.67285 7.41418 10.9414 7.19889 6.58877 6.29417 5.94446 6.33258 5.74556 5.59961 5.29873
threshold=0.33421979844570165 0.4105322808027268 7.5000000000000009 12.09999990463257 20.10000038146973 0.20662288367748263 0.40586172044277197 1.0000000180025095e-35 1.1000000238418581 5.9000000953674325 0.36666667461395269 0.56933760643005382 0.38761824369430548 5.0999999046325692 5.9000000953674325 11.900000095367433 0.43736350536346441 9.5500001907348651 0.55000001192092907 0.44656549394130712 3.5000000000000004 6.5499999523162851 2.2250000238418584 0.90000000596046459 0.42916150391101843 21.500000000000004 5.4500000476837167 0.29901261627674108 10.09999990463257 0.42405307292938238
decision_type=2 2 2 2 2 2 2 2 2 2 2 2 2 2 2 2 2 2 2 2 2 2 2 2 2 2 2 2 2 2
left_child=9 8 6 4 16 -5 20 -7 13 18 17 -12 -10 14 -2 -16 -4 -8 24 -6 21 -3 -15 -24 27 26 -14 -1 -22 -29
right_child=1 2 3 5 19 7 10 -9 12 -11 11 -13 25 22 15 -17 -18 -19 -20 -21 28 -23 23 -25 -26 -27 -28 29 -30 -31
leaf_value=-0.013665599522609146 -0.02352990430560651 -0.00021098067614093945 0.0013550861097244267 -0.032621608892833089 0.022170284384309506 0.013909148790840174 0.0053958346017692243 -0.0026175839995282828 -0.020681814336209237 0.0046590220924467157 0.0034505840394653911 -0.0066563241929497993 -0.0086728463527190134 -0.02701289083808301 0.006217790387051266 -0.0050750119287518479 0.004046803736103736 -0.0049310391830898956 -0.011052017117270906 -0.00046575615725758207 -0.0058331788841528729 0.012259772450199671 -0.0010448226431451929 -0.0055505550024965078 0.005198293576250422 0.013125751857115476 0.009904354918085792 0.011915852688069729 -0.0017001165285770879 -0.013918631612894576
leaf_weight=145.32992231845856 28.240483149886131 1114.2879557907581 6951.2000739574432 26.903208062052727 130.80057659745216 98.104608207941055 229.06263999640942 1530.9283931851387 115.80075052380562 159.80766253173351 3446.4371464252472 330.96837481856346 418.507956340909 27.310071393847466 786.33864742517471 225.30823935568333 4532.9323634952307 852.87490038573742 850.64765301346779 49.044221475720406 992.91755825281143 206.04682658612728 3604.1501528918743 1054.1084817647934 155.8703241944313 38.727588832378387 48.599862992763519 53.691080704331398 4905.2724364846945 28.408077821135521
leaf_count=612 116 4575 28283 110 531 400 932 6278 490 676 14058 1356 1730 112 3223 924 18326 3483 3664 198 4090 846 14833 4345 644 160 201 226 20137 119
internal_value=-4.22974e-06 0.000297093 0.000864744 0.00203661 0.00263327 -0.0021491 -0.000425687 -0.00159114 -0.00196997 -0.00687581 0.00137598 0.00255537 -0.00805373 -0.00130249 0.00286651 0.00367301 0.00242024 -0.0027157 -0.00839502 0.0159227 -0.00164204 0.00173185 -0.00223389 -0.00207173 -0.00240677 -0.00504349 -0.00665272 -0.00772781 -0.00240187 0.00256088
internal_weight=33138.6 31744.9 25397.8 13319.9 11664 1655.94 12077.9 1629.03 6347.09 1393.75 4859.34 3777.41 621.636 5725.46 1039.89 1011.65 11484.1 1081.94 1233.95 179.845 7218.52 1320.33 4685.57 4658.26 383.299 505.835 467.108 227.429 5898.19 82.0992
internal_count=135678 129737 103603 54126 47338 6788 49477 6678 26134 5941 19829 15414 2581 23553 4263 4147 46609 4415 5265 729 29648 5421 19290 19178 1601 2091 1931 957 24227 345
is_linear=0
shrinkage=0.05


Tree=26
num_leaves=31
num_cat=0
split_feature=40 36 37 38 24 9 18 25 37 39 6 8 8 25 37 39 8 20 18 15 28 5 36 9 3 40 18 40 6 39
split_gain=25.2064 13.4182 13.9909 10.7835 10.2599 9.92692 9.87304 8.99716 8.83557 8.74815 8.69217 8.63888 13.1984 8.62199 7.76559 7.67096 7.64014 7.42246 10.1274 8.9617 9.42914 7.36968 7.35017 9.94144 7.68076 7.08324 6.85334 6.5864 7.71435 6.51511
threshold=0.36913608014583593 0.41520588099956518 7.5000000000000009 2.5000000000000004 18.708333015441898 16.774999618530277 0.52793383598327648 12.09999990463257 19.500000000000004 0.51875197887420665 18.500000000000004 9.0999999046325701 10.366666316986086 10.291666507720949 2.5000000000000004 0.51875197887420665 10.633333683013918 7.0999999046325692 0.45297759771347051 0.57924640178680431 2.4500000476837163 -0.90000000596046437 0.42803224921226507 10.900000095367433 0.22500000149011615 0.40509909391403204 0.4036774635314942 0.31645096838474279 11.500000000000002 0.45014750957489019
decision_type=2 2 2 2 2 2 2 2 2 2 2 2 2 2 2 2 2 2 2 2 2 2 2 2 2 2 2 2 2 2
left_child=3 16 9 14 10 15 7 8 26 22 13 -11 -13 -4 -1 -6 -2 19 29 20 -18 -9 24 -24 -3 -12 -5 28 -16 -19
right_child=1 2 4 6 5 -7 -8 21 -10 11 25 12 -14 -15 27 -17 17 18 -20 -21 -22 -23 23 -25 -26 -27 -28 -29 -30 -31
leaf_value=-0.018505463475395251 0.0011674364215569449 -0.003087109732409523 -0.011551981898611624 0.0093462192561495887 0.013033949214878921 -0.016621580355262754 -0.024431786573735115 -0.019204968189521086 -0.038648882377839644 0.020578803674225099 -0.0055909778624788327 -0.016000903393877327 0.0074699892877562362 0.0017297250910117924 -0.0095434162105830656 -0.0083041453741545829 -0.0023961376824304672 -0.0051935065386768666 -0.018765975906384784 0.010772210895372249 0.0096145796399230189 -0.004180213970722743 -0.010487816307445892 -0.0016570890519225613 0.00099434152140715783 0.010460520629208676 -0.021462669709779815 0.0049496314159194824 0.013906281612579861 0.02186177381245949
leaf_weight=48.511288285255432 2383.6053925156593 1483.1265024989843 121.10985830426216 29.051564738154411 433.39503815770149 32.46881340444088 72.623093947768211 84.994730576872826 38.242549821734428 84.586638957262039 77.270774528384209 71.736208945512772 310.50964777171612 11191.183283537626 188.44109259545803 43.80219005048275 5730.3228592127562 131.20189580321312 152.817038372159 136.93940013647079 165.51113803684711 1764.7339752167463 390.9407182186842 1753.9529728591442 5142.9926135987043 460.23478004336357 39.490635320544243 506.48495601117611 40.425042480230331 24.655642986297607
leaf_count=204 9760 6080 497 124 1755 132 314 363 163 341 316 292 1262 45398 791 177 23573 543 633 563 679 7473 1606 7168 21068 1865 171 2097 169 101
internal_value=-4.47852e-06 0.000414909 0.00108403 -0.00453118 0.00218442 0.00913026 -0.00645444 -0.00575011 -0.0198154 -0.000385643 0.00188208 0.00626332 0.00293978 0.0015833 0.000419405 0.0109967 -0.00123839 -0.00214671 -0.00970256 -0.00175287 -0.00205158 -0.0049041 -0.000743727 -0.00328654 7.63612e-05 0.00809448 -0.00815519 0.0017486 -0.00520858 -0.000532412
internal_weight=33135.4 30322.4 21597.3 2813 12359.5 509.666 2029.14 1956.51 106.785 9237.85 11849.8 466.832 382.246 11312.3 783.862 477.197 8725.05 6341.45 308.675 6032.77 5895.83 1849.73 8771.01 2144.89 6626.12 537.506 68.5422 735.351 228.866 155.858
internal_count=135678 123809 87957 11869 50140 2064 8608 8294 458 37817 48076 1895 1554 45895 3261 1932 35852 26092 1277 24815 24252 7836 35922 8774 27148 2181 295 3057 960 644
is_linear=0
shrinkage=0.05


Tree=27
num_leaves=31
num_cat=0
split_feature=40 12 36 9 36 6 30 37 39 39 15 14 36 0 22 8 13 22 36 39 37 26 13 3 15 36 13 27 29 15
split_gain=23.834 14.1081 11.4992 10.0589 9.34548 10.2858 13.8453 9.21702 9.20515 9.14006 12.1674 9.90995 9.58276 12.3613 9.09723 8.10692 7.93387 12.2792 9.31839 7.71761 7.69307 10.7849 8.51801 7.67212 7.57228 7.43234 10.2334 7.08681 6.20542 5.50978
threshold=0.41939464211463934 6.2249999046325692 0.41915509104728704 6.2916667461395273 0.39948512613773351 17.500000000000004 1.5500000119209292 13.000000000000002 0.41633553802967077 0.38278897106647497 0.55791592597961437 0.30247858166694647 0.41773147881031042 0.77500000596046459 4.7750000953674325 6.4500000476837167 6.5499999523162851 5.3666667938232431 0.42483755946159368 0.51875197887420665 7.5000000000000009 18.708333015441898 6.0999999046325692 1.4499999880790713 0.51123738288879406 0.42982566356658941 7.7750000953674325 18.10000038146973 1.6333333253860476 0.56021979451179515
decision_type=2 2 2 2 2 2 2 2 2 2 2 2 2 2 2 2 2 2 2 2 2 2 2 2 2 2 2 2 2 2
left_child=1 2 9 -4 -2 20 8 15 -7 10 11 -1 19 -14 -3 -5 -16 -18 -19 -11 25 24 -23 -9 -22 27 -27 -6 -12 -8
right_child=4 14 3 7 5 6 29 23 -10 12 28 -13 13 -15 16 -17 17 18 -20 -21 21 22 -24 -25 -26 26 -28 -29 -30 -31
leaf_value=0.012057968733242263 -0.0019727254932657163 0.0038375779682400645 -0.028876768794944725 -0.022669815859015067 0.00072326716484545563 -0.015441143901843602 0.010391342519269278 -0.0021746158770415114 0.0069352474550666357 0.0032037152001753114 0.00076130422537678535 -0.0072332829523216449 -0.025156410781250207 0.0089985775190335061 -0.012372608232954352 0.00174511654505457 -0.030850840429087763 0.012811153664341393 -0.017311313340432472 -0.016046298855879451 0.0018992385691551025 0.012977909541090252 -0.012355423138246894 -0.020385371855837109 -0.0061892664638252288 -0.0048765326324734315 0.017406355222721537 -0.0079879622483774188 0.024134416019126772 -0.012506523644740947
leaf_weight=66.170374915003777 2581.0249643176794 137.77956120669842 28.19389271736145 32.196226000785828 8712.6075965166092 104.11353673040867 697.51345314085484 1843.5012120902538 77.703844323754311 811.14209422469139 82.819035053253174 1994.5469249039888 74.385060966014862 37.934703558683395 647.98294267058372 3672.5099684894085 25.225422501564026 108.84843388199806 30.996215343475342 53.350000157952309 9159.0254538059235 326.48769450187683 34.324292317032814 58.199488773941994 295.54069291055202 1081.0067722052336 51.73999410867691 237.56417009234428 43.29686164855957 24.689640909433365
leaf_count=274 10615 578 117 132 35639 427 2832 7622 316 3353 343 8345 305 156 2749 15063 105 455 129 219 37116 1318 140 242 1208 4416 212 972 179 101
internal_value=-4.82712e-06 -0.00208221 -0.00145249 -9.31628e-05 0.000860321 0.00121319 0.00642849 5.73747e-05 -0.00577066 -0.00386402 -0.00565909 -0.00659062 0.000132502 -0.0134467 -0.00786771 0.00151407 -0.0098865 0 0.00580839 0.0019526 0.000974365 0.00197066 0.0104442 -0.0027659 0.0016425 1.83041e-06 -0.00380781 0.00048752 0.00923216 0.00954165
internal_weight=33132.4 9749.08 8798.25 5634.6 23383.3 20802.3 904.02 5606.41 181.817 3163.65 2186.83 2060.72 976.812 112.32 950.833 3704.71 813.053 165.07 139.845 864.492 19898.3 9815.38 360.812 1901.7 9454.57 10082.9 1132.75 8950.17 126.116 722.203
internal_count=135678 40366 36350 23176 95312 84697 3676 23059 743 13174 9141 8619 4033 461 4016 15195 3438 689 584 3572 81021 39782 1458 7864 38324 41239 4628 36611 522 2933
is_linear=0
shrinkage=0.05


Tree=28
num_leaves=31
num_cat=0
split_feature=40 40 20 36 21 21 24 36 29 6 21 3 3 14 36 15 1 12 29 2 1 24 40 6 3 15 36 15 6 36
